{"learner":{"attributes":{"scikit_learn":"{\"_estimator_type\": \"regressor\"}"},"feature_names":["hour","day_of_week","month","is_weekend","hour_sin","hour_cos","dow_sin","dow_cos","temperature_C","lag_1h","lag_24h","roll_mean_24h"],"feature_types":["int","int","int","i","float","float","float","float","float","float","float","float"],"gradient_booster":{"model":{"gbtree_model_param":{"num_parallel_tree":"1","num_trees":"100"},"iteration_indptr":[0,1,2,3,4,5,6,7,8,9,10,11,12,13,14,15,16,17,18,19,20,21,22,23,24,25,26,27,28,29,30,31,32,33,34,35,36,37,38,39,40,41,42,43,44,45,46,47,48,49,50,51,52,53,54,55,56,57,58,59,60,61,62,63,64,65,66,67,68,69,70,71,72,73,74,75,76,77,78,79,80,81,82,83,84,85,86,87,88,89,90,91,92,93,94,95,96,97,98,99,100],"tree_info":[0,0,0,0,0,0,0,0,0,0,0,0,0,0,0,0,0,0,0,0,0,0,0,0,0,0,0,0,0,0,0,0,0,0,0,0,0,0,0,0,0,0,0,0,0,0,0,0,0,0,0,0,0,0,0,0,0,0,0,0,0,0,0,0,0,0,0,0,0,0,0,0,0,0,0,0,0,0,0,0,0,0,0,0,0,0,0,0,0,0,0,0,0,0,0,0,0,0,0,0],"trees":[{"base_weights":[-1.45920085E-8,-1.7781541E-1,1.9510075E-1,-2.0708552E-2,-2.3532157E-1,2.3486707E-1,-2.7018499E-2,-1.2190396E-1,6.887262E-2,-1.8471403E-1,-3.0134475E-1,3.9539957E-1,2.0053867E-1,5.0517783E-2,-1.2288051E-1,-1.3515927E-1,1.14675075E-1,1.4447752E-1,1.269543E-2,-1.7360646E-1,-2.3341903E-1,-3.3388492E-1,-2.021186E-1,4.3444797E-1,1.7337553E-1,2.2399588E-1,2.4349375E-2,2.975185E-2,9.086212E-2,-1.3733208E-1,-7.518958E-2,-1.4865938E-2,-7.992979E-3,7.4075237E-3,1.9169033E-2,4.0342744E-2,1.3908813E-2,-1.0623288E-2,6.020771E-3,-1.5718546E-2,-2.298648E-2,-2.3461774E-2,-4.493119E-3,-3.0299513E-2,-3.491527E-2,-1.7205749E-2,-2.7985001E-2,3.9358467E-2,4.691485E-2,5.5380627E-3,1.8644286E-2,1.6888013E-2,2.7773038E-2,-9.378198E-3,6.7504677E-3,-2.3032993E-3,4.2057787E-3,4.8596193E-3,1.0780017E-2,-1.2794517E-2,-1.9298825E-2,-8.061886E-3,-1.7413989E-3],"categories":[],"categories_nodes":[],"categories_segments":[],"categories_sizes":[],"default_left":[0,0,0,0,0,0,0,0,0,0,0,0,0,0,0,0,0,0,0,0,0,0,0,0,0,0,0,0,0,0,0,0,0,0,0,0,0,0,0,0,0,0,0,0,0,0,0,0,0,0,0,0,0,0,0,0,0,0,0,0,0,0,0],"id":0,"left_children":[1,3,5,7,9,11,13,15,17,19,21,23,25,27,29,31,33,35,37,39,41,43,45,47,49,51,53,55,57,59,61,-1,-1,-1,-1,-1,-1,-1,-1,-1,-1,-1,-1,-1,-1,-1,-1,-1,-1,-1,-1,-1,-1,-1,-1,-1,-1,-1,-1,-1,-1,-1,-1],"loss_changes":[2.4249652E2,3.30347E1,2.944629E1,8.9013605E0,8.888916E0,1.5499802E1,3.774629E0,1.461163E0,2.2109935E0,7.807083E-1,3.6779633E0,4.233513E0,9.628365E0,2.3271513E-1,1.461246E-1,3.1394625E-1,6.3970655E-2,2.537079E-1,1.7015624E0,1.1094017E0,5.249691E-2,3.0545807E-1,6.271553E-1,4.1373444E-1,1.0685754E-1,6.0451508E0,1.4082791E0,1.2243773E-1,6.2771976E-2,6.569004E-2,1.5848488E-2,0E0,0E0,0E0,0E0,0E0,0E0,0E0,0E0,0E0,0E0,0E0,0E0,0E0,0E0,0E0,0E0,0E0,0E0,0E0,0E0,0E0,0E0,0E0,0E0,0E0,0E0,0E0,0E0,0E0,0E0,0E0,0E0],"parents":[2147483647,0,0,1,1,2,2,3,3,4,4,5,5,6,6,7,7,8,8,9,9,10,10,11,11,12,12,13,13,14,14,15,15,16,16,17,17,18,18,19,19,20,20,21,21,22,22,23,23,24,24,25,25,26,26,27,27,28,28,29,29,30,30],"right_children":[2,4,6,8,10,12,14,16,18,20,22,24,26,28,30,32,34,36,38,40,42,44,46,48,50,52,54,56,58,60,62,-1,-1,-1,-1,-1,-1,-1,-1,-1,-1,-1,-1,-1,-1,-1,-1,-1,-1,-1,-1,-1,-1,-1,-1,-1,-1,-1,-1,-1,-1,-1,-1],"split_conditions":[6.082E-1,2.5881904E-1,6.123234E-17,-5E-1,5E-1,9E0,-8.660254E-1,6.01875E-1,5E0,2.3E1,5E0,5E0,5E0,6.5098333E-1,2.888E1,-7.0710677E-1,1.5E1,5.64E0,7E0,1.2246469E-16,7.102583E-1,3E0,5E0,8.61E-1,8E0,-7.0710677E-1,-7.0710677E-1,4.7891667E-1,4E0,-7.0710677E-1,9E0,-1.4865938E-2,-7.992979E-3,7.4075237E-3,1.9169033E-2,4.0342744E-2,1.3908813E-2,-1.0623288E-2,6.020771E-3,-1.5718546E-2,-2.298648E-2,-2.3461774E-2,-4.493119E-3,-3.0299513E-2,-3.491527E-2,-1.7205749E-2,-2.7985001E-2,3.9358467E-2,4.691485E-2,5.5380627E-3,1.8644286E-2,1.6888013E-2,2.7773038E-2,-9.378198E-3,6.7504677E-3,-2.3032993E-3,4.2057787E-3,4.8596193E-3,1.0780017E-2,-1.2794517E-2,-1.9298825E-2,-8.061886E-3,-1.7413989E-3],"split_indices":[9,5,5,5,4,0,4,11,1,0,0,1,1,11,8,5,0,8,0,4,11,0,1,9,0,5,5,11,2,4,2,0,0,0,0,0,0,0,0,0,0,0,0,0,0,0,0,0,0,0,0,0,0,0,0,0,0,0,0,0,0,0,0],"split_type":[0,0,0,0,0,0,0,0,0,0,0,0,0,0,0,0,0,0,0,0,0,0,0,0,0,0,0,0,0,0,0,0,0,0,0,0,0,0,0,0,0,0,0,0,0,0,0,0,0,0,0,0,0,0,0,0,0,0,0,0,0,0,0],"sum_hessian":[6.988E3,3.656E3,3.332E3,9.8E2,2.676E3,2.826E3,5.06E2,4.6E2,5.2E2,1.517E3,1.159E3,4.96E2,2.33E3,2.8E2,2.26E2,4.36E2,2.4E1,2.21E2,2.99E2,1.239E3,2.78E2,8.71E2,2.88E2,4.21E2,7.5E1,2.056E3,2.74E2,1.86E2,9.4E1,1.72E2,5.4E1,3.49E2,8.7E1,1.7E1,7E0,3E0,2.18E2,8.5E1,2.14E2,9.62E2,2.77E2,2.76E2,2E0,2.95E2,5.76E2,2.1E2,7.8E1,1.99E2,2.22E2,8E0,6.7E1,1.017E3,1.039E3,7.3E1,2.01E2,3.5E1,1.51E2,2.8E1,6.6E1,1.5E2,2.2E1,4.9E1,5E0],"tree_param":{"num_deleted":"0","num_feature":"12","num_nodes":"63","size_leaf_vector":"1"}},{"base_weights":[6.165955E-7,-1.5398596E-1,1.8258883E-1,-1.0429789E-2,-2.0990013E-1,2.1523027E-1,-1.4665482E-2,1.3059653E-1,-6.394052E-2,-1.6439688E-1,-2.7130547E-1,3.5960272E-1,1.8461701E-1,4.598576E-2,-1.0589501E-1,1.1686703E-1,2.317458E-1,-1.2303609E-1,1.6856315E-2,-9.116564E-2,-1.7088936E-1,-3.0057123E-1,-1.820631E-1,3.9344874E-1,1.5956585E-1,2.0248064E-1,2.7882027E-2,2.692657E-2,8.278991E-2,-1.2510476E-1,-7.7456355E-2,1.667767E-2,9.124055E-3,2.532554E-2,-7.493856E-3,-1.3669892E-2,-7.439572E-3,-9.573313E-3,5.6797783E-3,5.875265E-5,-1.0404843E-2,-1.3060394E-2,-1.811897E-2,-2.72798E-2,-3.1429794E-2,-1.5493325E-2,-2.5221927E-2,4.3893214E-2,3.665305E-2,5.045792E-3,1.726199E-2,1.5253703E-2,2.5111115E-2,-7.7441484E-3,6.0860873E-3,-2.284074E-3,3.8102155E-3,3.3743226E-3,9.492699E-3,-1.2643623E-2,-3.6801535E-3,-8.482278E-3,-3.5232697E-3],"categories":[],"categories_nodes":[],"categories_segments":[],"categories_sizes":[],"default_left":[0,0,0,0,0,0,0,0,0,0,0,0,0,0,0,0,0,0,0,0,0,0,0,0,0,0,0,0,0,0,0,0,0,0,0,0,0,0,0,0,0,0,0,0,0,0,0,0,0,0,0,0,0,0,0,0,0,0,0,0,0,0,0],"id":1,"left_children":[1,3,5,7,9,11,13,15,17,19,21,23,25,27,29,31,33,35,37,39,41,43,45,47,49,51,53,55,57,59,61,-1,-1,-1,-1,-1,-1,-1,-1,-1,-1,-1,-1,-1,-1,-1,-1,-1,-1,-1,-1,-1,-1,-1,-1,-1,-1,-1,-1,-1,-1,-1,-1],"loss_changes":[1.9653177E2,3.0435532E1,2.0594017E1,8.037742E0,7.580612E0,1.2061295E1,2.5224686E0,3.7981415E-1,3.6881695E0,7.308769E-1,2.9748993E0,3.1802597E0,6.338829E0,1.8997008E-1,8.973646E-2,3.1732583E-1,2.4326491E-1,2.862258E-1,1.4759526E0,1.5372586E-1,5.742874E-1,2.4669647E-1,5.109844E-1,3.3987427E-1,9.241533E-2,4.90184E0,8.140265E-1,1.02094814E-1,5.2158237E-2,7.927179E-3,2.0650297E-2,0E0,0E0,0E0,0E0,0E0,0E0,0E0,0E0,0E0,0E0,0E0,0E0,0E0,0E0,0E0,0E0,0E0,0E0,0E0,0E0,0E0,0E0,0E0,0E0,0E0,0E0,0E0,0E0,0E0,0E0,0E0,0E0],"parents":[2147483647,0,0,1,1,2,2,3,3,4,4,5,5,6,6,7,7,8,8,9,9,10,10,11,11,12,12,13,13,14,14,15,15,16,16,17,17,18,18,19,19,20,20,21,21,22,22,23,23,24,24,25,25,26,26,27,27,28,28,29,29,30,30],"right_children":[2,4,6,8,10,12,14,16,18,20,22,24,26,28,30,32,34,36,38,40,42,44,46,48,50,52,54,56,58,60,62,-1,-1,-1,-1,-1,-1,-1,-1,-1,-1,-1,-1,-1,-1,-1,-1,-1,-1,-1,-1,-1,-1,-1,-1,-1,-1,-1,-1,-1,-1,-1,-1],"split_conditions":[6.346E-1,2.5881904E-1,6.123234E-17,5E0,5E-1,9E0,-8.660254E-1,8.898E-1,-5E-1,-7.0710677E-1,5E0,5E0,5E0,6.5098333E-1,2.622E1,5E0,2.846E1,3.148E1,7E0,2E1,1E0,3E0,5E0,1.352E1,8E0,-7.0710677E-1,-7.0710677E-1,4.7891667E-1,7.778E-1,6.9243336E-1,9.749279E-1,1.667767E-2,9.124055E-3,2.532554E-2,-7.493856E-3,-1.3669892E-2,-7.439572E-3,-9.573313E-3,5.6797783E-3,5.875265E-5,-1.0404843E-2,-1.3060394E-2,-1.811897E-2,-2.72798E-2,-3.1429794E-2,-1.5493325E-2,-2.5221927E-2,4.3893214E-2,3.665305E-2,5.045792E-3,1.726199E-2,1.5253703E-2,2.5111115E-2,-7.7441484E-3,6.0860873E-3,-2.284074E-3,3.8102155E-3,3.3743226E-3,9.492699E-3,-1.2643623E-2,-3.6801535E-3,-8.482278E-3,-3.5232697E-3],"split_indices":[9,5,5,1,4,0,4,10,5,4,0,1,1,11,8,2,8,8,0,0,0,0,1,8,0,5,5,11,9,11,6,0,0,0,0,0,0,0,0,0,0,0,0,0,0,0,0,0,0,0,0,0,0,0,0,0,0,0,0,0,0,0,0],"split_type":[0,0,0,0,0,0,0,0,0,0,0,0,0,0,0,0,0,0,0,0,0,0,0,0,0,0,0,0,0,0,0,0,0,0,0,0,0,0,0,0,0,0,0,0,0,0,0,0,0,0,0,0,0,0,0,0,0,0,0,0,0,0,0],"sum_hessian":[6.988E3,3.791E3,3.197E3,1.063E3,2.728E3,2.743E3,4.54E2,2.92E2,7.71E2,1.569E3,1.159E3,4.78E2,2.265E3,2.73E2,1.81E2,2.59E2,3.3E1,4.45E2,3.26E2,1.29E2,1.44E3,8.71E2,2.88E2,4.08E2,7E1,2.033E3,2.32E2,1.81E2,9.2E1,1.06E2,7.5E1,8.6E1,1.73E2,3.1E1,2E0,3.46E2,9.9E1,8.5E1,2.41E2,1.6E1,1.13E2,2.96E2,1.144E3,2.95E2,5.76E2,2.1E2,7.8E1,1.46E2,2.62E2,8E0,6.2E1,1.005E3,1.028E3,5.5E1,1.77E2,3.3E1,1.48E2,1.9E1,7.3E1,1.04E2,2E0,6.3E1,1.2E1],"tree_param":{"num_deleted":"0","num_feature":"12","num_nodes":"63","size_leaf_vector":"1"}},{"base_weights":[1.3068887E-6,-1.4415245E-1,1.5816821E-1,-1.6906641E-2,-1.9072846E-1,1.9041057E-1,-2.1925122E-2,-8.714291E-2,7.036605E-2,-1.4969549E-1,-2.4426064E-1,3.2097656E-1,1.6249049E-1,4.109416E-2,-9.9839196E-2,-9.729971E-2,1.0350739E-1,-1.1640649E-2,1.0315351E-1,-1.4002849E-1,-1.9212331E-1,-2.7058145E-1,-1.6399767E-1,3.5256228E-1,1.4136924E-1,1.8146901E-1,1.9940324E-2,2.362029E-2,7.616371E-2,-1.1249017E-1,-6.1037377E-2,-1.220386E-2,-4.51812E-3,5.8204243E-3,1.6823007E-2,8.785545E-3,-7.6097324E-3,3.606621E-2,9.949807E-3,-1.2577273E-2,-1.8890722E-2,-2.1646842E-2,-1.7774602E-2,-2.4561038E-2,-2.8292263E-2,-1.3951334E-2,-2.273166E-2,3.1646233E-2,3.8335796E-2,4.5972792E-3,1.5191629E-2,1.3682035E-2,2.2499867E-2,-7.595479E-3,5.4971506E-3,-5.729494E-4,4.0544164E-3,5.976008E-3,1.1210927E-2,-1.0438779E-2,-1.5973633E-2,-1.09562585E-2,-5.3331344E-3],"categories":[],"categories_nodes":[],"categories_segments":[],"categories_sizes":[],"default_left":[0,0,0,0,0,0,0,0,0,0,0,0,0,0,0,0,0,0,0,0,0,0,0,0,0,0,0,0,0,0,0,0,0,0,0,0,0,0,0,0,0,0,0,0,0,0,0,0,0,0,0,0,0,0,0,0,0,0,0,0,0,0,0],"id":2,"left_children":[1,3,5,7,9,11,13,15,17,19,21,23,25,27,29,31,33,35,37,39,41,43,45,47,49,51,53,55,57,59,61,-1,-1,-1,-1,-1,-1,-1,-1,-1,-1,-1,-1,-1,-1,-1,-1,-1,-1,-1,-1,-1,-1,-1,-1,-1,-1,-1,-1,-1,-1,-1,-1],"loss_changes":[1.5937445E2,2.1670357E1,1.9357689E1,6.0193753E0,5.8436966E0,1.0253418E1,2.4935179E0,1.0634708E0,1.1788919E0,5.9570694E-1,2.406227E0,2.7696533E0,6.302643E0,1.70398E-1,1.0456395E-1,6.6108227E-1,7.230824E-2,8.1474715E-1,2.58744E-1,8.402767E-1,5.9178352E-2,1.9923782E-1,4.163289E-1,3.4783173E-1,6.94834E-2,3.9670868E0,9.279881E-1,9.4110854E-2,4.813665E-2,4.8402548E-2,1.5845224E-2,0E0,0E0,0E0,0E0,0E0,0E0,0E0,0E0,0E0,0E0,0E0,0E0,0E0,0E0,0E0,0E0,0E0,0E0,0E0,0E0,0E0,0E0,0E0,0E0,0E0,0E0,0E0,0E0,0E0,0E0,0E0,0E0],"parents":[2147483647,0,0,1,1,2,2,3,3,4,4,5,5,6,6,7,7,8,8,9,9,10,10,11,11,12,12,13,13,14,14,15,15,16,16,17,17,18,18,19,19,20,20,21,21,22,22,23,23,24,24,25,25,26,26,27,27,28,28,29,29,30,30],"right_children":[2,4,6,8,10,12,14,16,18,20,22,24,26,28,30,32,34,36,38,40,42,44,46,48,50,52,54,56,58,60,62,-1,-1,-1,-1,-1,-1,-1,-1,-1,-1,-1,-1,-1,-1,-1,-1,-1,-1,-1,-1,-1,-1,-1,-1,-1,-1,-1,-1,-1,-1,-1,-1],"split_conditions":[6.082E-1,2.5881904E-1,6.123234E-17,-2.5881904E-1,5E-1,9E0,-8.660254E-1,6.01875E-1,3.822E-1,2.3E1,5E0,5E0,5E0,2.566E1,2.872E1,-7.0710677E-1,-7.0710677E-1,5E0,5.64E0,1.2246469E-16,6.143E-1,3E0,5E0,8.61E-1,8E0,-7.0710677E-1,-7.0710677E-1,6.143E-1,6.7395E-1,-7.0710677E-1,4.903E-1,-1.220386E-2,-4.51812E-3,5.8204243E-3,1.6823007E-2,8.785545E-3,-7.6097324E-3,3.606621E-2,9.949807E-3,-1.2577273E-2,-1.8890722E-2,-2.1646842E-2,-1.7774602E-2,-2.4561038E-2,-2.8292263E-2,-1.3951334E-2,-2.273166E-2,3.1646233E-2,3.8335796E-2,4.5972792E-3,1.5191629E-2,1.3682035E-2,2.2499867E-2,-7.595479E-3,5.4971506E-3,-5.729494E-4,4.0544164E-3,5.976008E-3,1.1210927E-2,-1.0438779E-2,-1.5973633E-2,-1.09562585E-2,-5.3331344E-3],"split_indices":[9,5,5,5,4,0,4,11,9,0,0,1,1,8,8,5,5,1,8,4,11,0,1,9,0,5,5,11,11,4,11,0,0,0,0,0,0,0,0,0,0,0,0,0,0,0,0,0,0,0,0,0,0,0,0,0,0,0,0,0,0,0,0],"split_type":[0,0,0,0,0,0,0,0,0,0,0,0,0,0,0,0,0,0,0,0,0,0,0,0,0,0,0,0,0,0,0,0,0,0,0,0,0,0,0,0,0,0,0,0,0,0,0,0,0,0,0,0,0,0,0,0,0,0,0,0,0,0,0],"sum_hessian":[6.988E3,3.656E3,3.332E3,9.8E2,2.676E3,2.826E3,5.06E2,5.43E2,4.37E2,1.517E3,1.159E3,4.96E2,2.33E3,2.8E2,2.26E2,5.16E2,2.7E1,1.25E2,3.12E2,1.239E3,2.78E2,8.71E2,2.88E2,4.21E2,7.5E1,2.056E3,2.74E2,1.88E2,9.2E1,1.69E2,5.7E1,3.49E2,1.67E2,1.7E1,1E1,4.9E1,7.6E1,3E0,3.09E2,9.62E2,2.77E2,9.8E1,1.8E2,2.95E2,5.76E2,2.1E2,7.8E1,1.99E2,2.22E2,8E0,6.7E1,1.017E3,1.039E3,7.3E1,2.01E2,6.9E1,1.19E2,6.5E1,2.7E1,1.47E2,2.2E1,6E0,5.1E1],"tree_param":{"num_deleted":"0","num_feature":"12","num_nodes":"63","size_leaf_vector":"1"}},{"base_weights":[3.97451E-7,-1.2484925E-1,1.4803976E-1,-8.601062E-3,-1.701271E-1,1.7451285E-1,-1.1938705E-2,1.07163556E-1,-5.2526493E-2,-1.3323516E-1,-2.1991177E-1,2.917582E-1,1.4965184E-1,3.7336748E-2,-8.605703E-2,1.1280212E-1,-6.368792E-2,-1.0041426E-1,1.2948951E-2,-7.104394E-2,-1.3875328E-1,-2.4358392E-1,-1.477248E-1,3.1910092E-1,1.3013954E-1,1.0086193E-1,1.8880546E-1,2.6902221E-2,8.8470876E-2,-1.01991765E-1,-6.249027E-2,9.999814E-3,2.1050846E-2,-9.904708E-3,1.4112563E-3,-1.1267196E-2,-5.8501004E-3,-8.201676E-3,4.664359E-3,6.610099E-4,-8.200074E-3,-1.0505258E-2,-1.4737368E-2,-2.3248471E-2,-2.6996896E-2,-1.256281E-2,-2.0487268E-2,3.6026593E-2,2.9487902E-2,4.18863E-3,1.4068144E-2,1.2084575E-2,1.8196814E-3,1.7223245E-2,2.4757365E-2,-7.678449E-5,4.148024E-3,1.3008575E-3,9.160533E-3,-1.4439829E-2,-9.662384E-3,-8.402324E-3,-4.817889E-3],"categories":[],"categories_nodes":[],"categories_segments":[],"categories_sizes":[],"default_left":[0,0,0,0,0,0,0,0,0,0,0,0,0,0,0,0,0,0,0,0,0,0,0,0,0,0,0,0,0,0,0,0,0,0,0,0,0,0,0,0,0,0,0,0,0,0,0,0,0,0,0,0,0,0,0,0,0,0,0,0,0,0,0],"id":3,"left_children":[1,3,5,7,9,11,13,15,17,19,21,23,25,27,29,31,33,35,37,39,41,43,45,47,49,51,53,55,57,59,61,-1,-1,-1,-1,-1,-1,-1,-1,-1,-1,-1,-1,-1,-1,-1,-1,-1,-1,-1,-1,-1,-1,-1,-1,-1,-1,-1,-1,-1,-1,-1,-1],"loss_changes":[1.2919382E2,1.9957603E1,1.3546005E1,5.4160805E0,4.9829254E0,7.9546585E0,1.6649705E0,2.8944755E-1,2.4218848E0,5.289326E-1,1.9462471E0,2.0752182E0,4.3097E0,1.4381546E-1,6.1973095E-2,3.3424187E-1,2.89074E-2,2.2254562E-1,1.0501716E0,1.1115116E-1,4.0314674E-1,1.9260406E-1,3.3920574E-1,3.015747E-1,6.0162783E-2,1.6679373E0,1.1806641E0,9.240469E-2,9.688884E-3,1.0404587E-2,1.9372493E-2,0E0,0E0,0E0,0E0,0E0,0E0,0E0,0E0,0E0,0E0,0E0,0E0,0E0,0E0,0E0,0E0,0E0,0E0,0E0,0E0,0E0,0E0,0E0,0E0,0E0,0E0,0E0,0E0,0E0,0E0,0E0,0E0],"parents":[2147483647,0,0,1,1,2,2,3,3,4,4,5,5,6,6,7,7,8,8,9,9,10,10,11,11,12,12,13,13,14,14,15,15,16,16,17,17,18,18,19,19,20,20,21,21,22,22,23,23,24,24,25,25,26,26,27,27,28,28,29,29,30,30],"right_children":[2,4,6,8,10,12,14,16,18,20,22,24,26,28,30,32,34,36,38,40,42,44,46,48,50,52,54,56,58,60,62,-1,-1,-1,-1,-1,-1,-1,-1,-1,-1,-1,-1,-1,-1,-1,-1,-1,-1,-1,-1,-1,-1,-1,-1,-1,-1,-1,-1,-1,-1,-1,-1],"split_conditions":[6.346E-1,2.5881904E-1,6.123234E-17,5E0,5E-1,9E0,-8.660254E-1,2.846E1,-5E-1,-7.0710677E-1,5E0,5E0,8.186E-1,3.098E1,2.622E1,8.898E-1,7E0,3.136E1,7E0,2E1,1E0,5E0,5E0,1.352E1,8E0,5E0,1.0092E0,6.143E-1,4.8585E-1,1.072E1,6.5528333E-1,9.999814E-3,2.1050846E-2,-9.904708E-3,1.4112563E-3,-1.1267196E-2,-5.8501004E-3,-8.201676E-3,4.664359E-3,6.610099E-4,-8.200074E-3,-1.0505258E-2,-1.4737368E-2,-2.3248471E-2,-2.6996896E-2,-1.256281E-2,-2.0487268E-2,3.6026593E-2,2.9487902E-2,4.18863E-3,1.4068144E-2,1.2084575E-2,1.8196814E-3,1.7223245E-2,2.4757365E-2,-7.678449E-5,4.148024E-3,1.3008575E-3,9.160533E-3,-1.4439829E-2,-9.662384E-3,-8.402324E-3,-4.817889E-3],"split_indices":[9,5,5,1,4,0,4,8,5,4,0,1,9,8,8,10,2,8,0,0,0,1,1,8,0,1,9,11,11,8,11,0,0,0,0,0,0,0,0,0,0,0,0,0,0,0,0,0,0,0,0,0,0,0,0,0,0,0,0,0,0,0,0],"split_type":[0,0,0,0,0,0,0,0,0,0,0,0,0,0,0,0,0,0,0,0,0,0,0,0,0,0,0,0,0,0,0,0,0,0,0,0,0,0,0,0,0,0,0,0,0,0,0,0,0,0,0,0,0,0,0,0,0,0,0,0,0,0,0],"sum_hessian":[6.988E3,3.791E3,3.197E3,1.063E3,2.728E3,2.743E3,4.54E2,2.92E2,7.71E2,1.569E3,1.159E3,4.78E2,2.265E3,2.73E2,1.81E2,2.83E2,9E0,4.45E2,3.26E2,1.29E2,1.44E3,8.71E2,2.88E2,4.08E2,7E1,1.01E3,1.255E3,2.28E2,4.5E1,1.06E2,7.5E1,2.52E2,3.1E1,6E0,3E0,3.43E2,1.02E2,8.5E1,2.41E2,1.6E1,1.13E2,2.96E2,1.144E3,6.2E2,2.51E2,2.1E2,7.8E1,1.46E2,2.62E2,8E0,6.2E1,8.13E2,1.97E2,9.82E2,2.73E2,7.9E1,1.49E2,2E0,4.3E1,9E0,9.7E1,2.8E1,4.7E1],"tree_param":{"num_deleted":"0","num_feature":"12","num_nodes":"63","size_leaf_vector":"1"}},{"base_weights":[7.3836543E-7,-1.1686374E-1,1.2822558E-1,-1.3799595E-2,-1.5458846E-1,1.5437548E-1,-1.783749E-2,-7.179303E-2,5.8260284E-2,-1.1358655E-1,-1.8989033E-1,2.6055583E-1,1.316702E-1,3.345288E-2,-8.125052E-2,-8.016975E-2,8.544122E-2,-1.012382E-2,8.5602574E-2,-1.00494616E-1,-1.5836774E-1,-2.0401752E-1,-1.3306668E-1,2.8610393E-1,1.1526829E-1,1.4723441E-1,1.4771154E-2,1.873272E-2,6.300834E-2,-9.148107E-2,-4.75935E-2,-1.0013841E-2,-3.8091168E-3,4.502398E-3,1.43811125E-2,6.944579E-3,-6.166092E-3,3.261126E-2,8.222308E-3,-7.938481E-3,-1.0667506E-2,-1.8155837E-2,-1.4598752E-2,-1.5540007E-2,-2.1928316E-2,-1.1312483E-2,-1.8464474E-2,2.5413498E-2,3.1349268E-2,4.060171E-3,1.2469213E-2,1.0841831E-2,1.8508783E-2,-2.47028E-3,8.092866E-3,-4.4506015E-3,2.4440116E-3,4.9177E-3,9.336048E-3,-8.477681E-3,-1.31518515E-2,-9.570829E-3,-4.086786E-3],"categories":[],"categories_nodes":[],"categories_segments":[],"categories_sizes":[],"default_left":[0,0,0,0,0,0,0,0,0,0,0,0,0,0,0,0,0,0,0,0,0,0,0,0,0,0,0,0,0,0,0,0,0,0,0,0,0,0,0,0,0,0,0,0,0,0,0,0,0,0,0,0,0,0,0,0,0,0,0,0,0,0,0],"id":4,"left_children":[1,3,5,7,9,11,13,15,17,19,21,23,25,27,29,31,33,35,37,39,41,43,45,47,49,51,53,55,57,59,61,-1,-1,-1,-1,-1,-1,-1,-1,-1,-1,-1,-1,-1,-1,-1,-1,-1,-1,-1,-1,-1,-1,-1,-1,-1,-1,-1,-1,-1,-1,-1,-1],"loss_changes":[1.0474466E2,1.4216526E1,1.2733261E1,4.1037817E0,3.8532295E0,6.7811737E0,1.6517242E0,7.2335625E-1,8.1982946E-1,7.1164894E-1,1.1264191E0,1.8117943E0,4.238941E0,1.21071815E-1,7.380879E-2,4.3059635E-1,5.958125E-2,5.2098125E-1,2.2759295E-1,1.1717224E-1,5.3596973E-2,8.186798E-1,2.763667E-1,2.8982925E-1,4.841435E-2,3.0023346E0,7.2016114E-1,6.9303215E-2,3.4451246E-2,3.528726E-2,1.3886772E-2,0E0,0E0,0E0,0E0,0E0,0E0,0E0,0E0,0E0,0E0,0E0,0E0,0E0,0E0,0E0,0E0,0E0,0E0,0E0,0E0,0E0,0E0,0E0,0E0,0E0,0E0,0E0,0E0,0E0,0E0,0E0,0E0],"parents":[2147483647,0,0,1,1,2,2,3,3,4,4,5,5,6,6,7,7,8,8,9,9,10,10,11,11,12,12,13,13,14,14,15,15,16,16,17,17,18,18,19,19,20,20,21,21,22,22,23,23,24,24,25,25,26,26,27,27,28,28,29,29,30,30],"right_children":[2,4,6,8,10,12,14,16,18,20,22,24,26,28,30,32,34,36,38,40,42,44,46,48,50,52,54,56,58,60,62,-1,-1,-1,-1,-1,-1,-1,-1,-1,-1,-1,-1,-1,-1,-1,-1,-1,-1,-1,-1,-1,-1,-1,-1,-1,-1,-1,-1,-1,-1,-1,-1],"split_conditions":[6.082E-1,2.5881904E-1,6.123234E-17,-2.5881904E-1,1.2246469E-16,9E0,-8.660254E-1,6.01875E-1,3.822E-1,2.3E1,5E0,5E0,5E0,2.566E1,2.888E1,-7.0710677E-1,-7.0710677E-1,5E0,5.64E0,1.138E1,6.090583E-1,2E0,5E0,8.61E-1,4.5926666E-1,-7.0710677E-1,1.7E1,4.6673334E-1,6.7395E-1,-7.0710677E-1,4.903E-1,-1.0013841E-2,-3.8091168E-3,4.502398E-3,1.43811125E-2,6.944579E-3,-6.166092E-3,3.261126E-2,8.222308E-3,-7.938481E-3,-1.0667506E-2,-1.8155837E-2,-1.4598752E-2,-1.5540007E-2,-2.1928316E-2,-1.1312483E-2,-1.8464474E-2,2.5413498E-2,3.1349268E-2,4.060171E-3,1.2469213E-2,1.0841831E-2,1.8508783E-2,-2.47028E-3,8.092866E-3,-4.4506015E-3,2.4440116E-3,4.9177E-3,9.336048E-3,-8.477681E-3,-1.31518515E-2,-9.570829E-3,-4.086786E-3],"split_indices":[9,5,5,5,4,0,4,11,9,0,0,1,1,8,8,5,5,1,8,8,11,0,1,9,11,5,0,11,11,4,11,0,0,0,0,0,0,0,0,0,0,0,0,0,0,0,0,0,0,0,0,0,0,0,0,0,0,0,0,0,0,0,0],"split_type":[0,0,0,0,0,0,0,0,0,0,0,0,0,0,0,0,0,0,0,0,0,0,0,0,0,0,0,0,0,0,0,0,0,0,0,0,0,0,0,0,0,0,0,0,0,0,0,0,0,0,0,0,0,0,0,0,0,0,0,0,0,0,0],"sum_hessian":[6.988E3,3.656E3,3.332E3,9.8E2,2.676E3,2.826E3,5.06E2,5.43E2,4.37E2,1.24E3,1.436E3,4.96E2,2.33E3,2.8E2,2.26E2,5.16E2,2.7E1,1.25E2,3.12E2,9.62E2,2.78E2,1.148E3,2.88E2,4.21E2,7.5E1,2.056E3,2.74E2,1.88E2,9.2E1,1.72E2,5.4E1,3.49E2,1.67E2,1.7E1,1E1,4.9E1,7.6E1,3E0,3.09E2,2.21E2,7.41E2,9.2E1,1.86E2,2.77E2,8.71E2,2.1E2,7.8E1,1.99E2,2.22E2,9E0,6.6E1,1.017E3,1.039E3,1.72E2,1.02E2,1.5E1,1.73E2,6.5E1,2.7E1,1.5E2,2.2E1,5E0,4.9E1],"tree_param":{"num_deleted":"0","num_feature":"12","num_nodes":"63","size_leaf_vector":"1"}},{"base_weights":[2.5600746E-6,-1.0124419E-1,1.2005499E-1,-7.159159E-3,-1.3788956E-1,8.4500425E-2,1.9973268E-1,8.790887E-2,-4.3231405E-2,-1.0087459E-1,-1.7090443E-1,1.0886815E-1,-1.04136355E-2,2.1437523E-1,6.332438E-2,9.274455E-2,-5.8215354E-2,-8.200575E-2,9.785687E-3,-8.917726E-2,-1.4270827E-1,-1.8354975E-1,-1.19863056E-1,8.121434E-2,1.4451791E-1,2.9499972E-2,-7.0007525E-2,2.5008634E-1,1.7559107E-1,1.1357809E-1,2.2883762E-2,8.1933215E-3,1.7532337E-2,-8.672623E-3,6.232515E-4,-9.198709E-3,-4.1501895E-3,-7.0492974E-3,3.827403E-3,-5.4918095E-3,-9.41313E-3,-1.5858892E-2,-1.280911E-2,-1.5826587E-2,-2.0851552E-2,-1.0186596E-2,-1.66414E-2,2.1209212E-2,7.4784844E-3,2.7850172E-2,1.3499955E-2,2.0981838E-3,7.2002965E-3,-8.537588E-3,-5.146511E-3,2.1403635E-2,2.7547834E-2,1.5131995E-2,2.0433674E-2,4.733169E-4,1.2462031E-2,1.0128635E-3,6.3313507E-3],"categories":[],"categories_nodes":[],"categories_segments":[],"categories_sizes":[],"default_left":[0,0,0,0,0,0,0,0,0,0,0,0,0,0,0,0,0,0,0,0,0,0,0,0,0,0,0,0,0,0,0,0,0,0,0,0,0,0,0,0,0,0,0,0,0,0,0,0,0,0,0,0,0,0,0,0,0,0,0,0,0,0,0],"id":5,"left_children":[1,3,5,7,9,11,13,15,17,19,21,23,25,27,29,31,33,35,37,39,41,43,45,47,49,51,53,55,57,59,61,-1,-1,-1,-1,-1,-1,-1,-1,-1,-1,-1,-1,-1,-1,-1,-1,-1,-1,-1,-1,-1,-1,-1,-1,-1,-1,-1,-1,-1,-1,-1,-1],"loss_changes":[8.4962875E1,1.3073002E1,9.042755E0,3.6525939E0,3.3177185E0,5.1194487E0,1.9558296E0,2.1243596E-1,1.5878053E0,6.1803627E-1,9.080734E-1,1.7243462E0,1.0795742E0,1.1887589E0,1.9453314E-1,2.3918676E-1,1.8915173E-2,1.7649269E-1,7.505491E-1,1.6624928E-1,4.4682503E-2,6.9480515E-1,2.251668E-1,8.205676E-1,9.418392E-1,9.696579E-2,4.7470033E-2,3.6302948E-1,2.6908684E-1,5.1091373E-2,2.772148E-2,0E0,0E0,0E0,0E0,0E0,0E0,0E0,0E0,0E0,0E0,0E0,0E0,0E0,0E0,0E0,0E0,0E0,0E0,0E0,0E0,0E0,0E0,0E0,0E0,0E0,0E0,0E0,0E0,0E0,0E0,0E0,0E0],"parents":[2147483647,0,0,1,1,2,2,3,3,4,4,5,5,6,6,7,7,8,8,9,9,10,10,11,11,12,12,13,13,14,14,15,15,16,16,17,17,18,18,19,19,20,20,21,21,22,22,23,23,24,24,25,25,26,26,27,27,28,28,29,29,30,30],"right_children":[2,4,6,8,10,12,14,16,18,20,22,24,26,28,30,32,34,36,38,40,42,44,46,48,50,52,54,56,58,60,62,-1,-1,-1,-1,-1,-1,-1,-1,-1,-1,-1,-1,-1,-1,-1,-1,-1,-1,-1,-1,-1,-1,-1,-1,-1,-1,-1,-1,-1,-1,-1,-1],"split_conditions":[6.346E-1,2.5881904E-1,8.704E-1,5E0,1.2246469E-16,6.123234E-17,5E0,2.846E1,-5E-1,2.3E1,5E0,8.3E-1,-8.660254E-1,1E1,9E0,8.898E-1,7E0,3.162E1,7E0,-7.0710677E-1,6.309E-1,3E0,5E0,8E0,9E0,3.098E1,6.54475E-1,6.4675E-1,6.657917E-1,8E0,3.148E1,8.1933215E-3,1.7532337E-2,-8.672623E-3,6.232515E-4,-9.198709E-3,-4.1501895E-3,-7.0492974E-3,3.827403E-3,-5.4918095E-3,-9.41313E-3,-1.5858892E-2,-1.280911E-2,-1.5826587E-2,-2.0851552E-2,-1.0186596E-2,-1.66414E-2,2.1209212E-2,7.4784844E-3,2.7850172E-2,1.3499955E-2,2.0981838E-3,7.2002965E-3,-8.537588E-3,-5.146511E-3,2.1403635E-2,2.7547834E-2,1.5131995E-2,2.0433674E-2,4.733169E-4,1.2462031E-2,1.0128635E-3,6.3313507E-3],"split_indices":[9,5,10,1,4,5,1,8,5,0,0,9,4,0,0,10,2,8,0,4,11,0,1,0,0,8,11,11,11,0,8,0,0,0,0,0,0,0,0,0,0,0,0,0,0,0,0,0,0,0,0,0,0,0,0,0,0,0,0,0,0,0,0],"split_type":[0,0,0,0,0,0,0,0,0,0,0,0,0,0,0,0,0,0,0,0,0,0,0,0,0,0,0,0,0,0,0,0,0,0,0,0,0,0,0,0,0,0,0,0,0,0,0,0,0,0,0,0,0,0,0,0,0,0,0,0,0,0,0],"sum_hessian":[6.988E3,3.791E3,3.197E3,1.063E3,2.728E3,2.212E3,9.85E2,2.92E2,7.71E2,1.288E3,1.44E3,1.76E3,4.52E2,8.89E2,9.6E1,2.83E2,9E0,4.45E2,3.26E2,1.009E3,2.79E2,1.152E3,2.88E2,9.93E2,7.67E2,2.71E2,1.81E2,4.6E2,4.29E2,4.2E1,5.4E1,2.52E2,3.1E1,6E0,3E0,3.56E2,8.9E1,8.5E1,2.41E2,1.29E2,8.8E2,1.29E2,1.5E2,5.76E2,5.76E2,2.1E2,7.8E1,4.5E1,9.48E2,4.9E1,7.18E2,2.27E2,4.4E1,9.7E1,8.4E1,1.94E2,2.66E2,2.36E2,1.93E2,4E0,3.8E1,4.2E1,1.2E1],"tree_param":{"num_deleted":"0","num_feature":"12","num_nodes":"63","size_leaf_vector":"1"}},{"base_weights":[1.1528964E-5,-9.704217E-2,1.01554245E-1,-1.4192751E-2,-1.2600908E-1,1.2357285E-1,-1.698521E-2,-6.345474E-2,4.5684446E-2,-9.8746024E-2,-1.6089588E-1,9.784711E-2,1.8889017E-1,2.7228683E-2,-6.5813966E-2,-6.788589E-2,6.878127E-2,-8.6438395E-3,6.881261E-2,-9.1886535E-2,-1.2829623E-1,-1.7825231E-1,-1.0796957E-1,1.1177277E-1,1.3725422E-2,2.0635456E-1,5.6303576E-2,-8.42671E-3,3.6903236E-2,-5.8600295E-2,-1.0673233E-1,-8.332567E-3,-3.5231074E-3,1.3467354E-3,1.6794557E-2,5.461064E-3,-4.960592E-3,2.955091E-2,6.5460033E-3,-8.225182E-3,-1.2441558E-2,-1.2933559E-2,1.0090054E-3,-1.6824579E-2,-2.0220388E-2,-9.172763E-3,-1.4998324E-2,2.1033928E-2,9.876865E-3,-7.0277266E-3,4.750032E-3,2.283456E-2,1.7154446E-2,1.0190574E-2,1.8948087E-3,-2.8252823E-3,7.108483E-4,2.4199877E-3,6.0045333E-3,-7.005691E-3,-3.935387E-3,-1.0885975E-2,-1.5072763E-3],"categories":[],"categories_nodes":[],"categories_segments":[],"categories_sizes":[],"default_left":[0,0,0,0,0,0,0,0,0,0,0,0,0,0,0,0,0,0,0,0,0,0,0,0,0,0,0,0,0,0,0,0,0,0,0,0,0,0,0,0,0,0,0,0,0,0,0,0,0,0,0,0,0,0,0,0,0,0,0,0,0,0,0],"id":6,"left_children":[1,3,5,7,9,11,13,15,17,19,21,23,25,27,29,31,33,35,37,39,41,43,45,47,49,51,53,55,57,59,61,-1,-1,-1,-1,-1,-1,-1,-1,-1,-1,-1,-1,-1,-1,-1,-1,-1,-1,-1,-1,-1,-1,-1,-1,-1,-1,-1,-1,-1,-1,-1,-1],"loss_changes":[6.888713E1,8.575424E0,8.91811E0,2.7372427E0,2.502678E0,4.822567E0,1.1589674E0,3.02922E-1,5.2707386E-1,2.9003048E-1,1.046341E0,2.4221973E0,1.8709164E0,9.7586885E-2,6.901419E-2,2.4562645E-1,9.098603E-2,3.291794E-1,2.0410085E-1,3.696165E-1,4.1290283E-2,1.7497444E-1,1.8345141E-1,2.2543678E0,8.403069E-1,5.104637E-1,1.6160426E-1,1.8988987E-2,6.3810945E-2,4.5532227E-2,5.5740774E-3,0E0,0E0,0E0,0E0,0E0,0E0,0E0,0E0,0E0,0E0,0E0,0E0,0E0,0E0,0E0,0E0,0E0,0E0,0E0,0E0,0E0,0E0,0E0,0E0,0E0,0E0,0E0,0E0,0E0,0E0,0E0,0E0],"parents":[2147483647,0,0,1,1,2,2,3,3,4,4,5,5,6,6,7,7,8,8,9,9,10,10,11,11,12,12,13,13,14,14,15,15,16,16,17,17,18,18,19,19,20,20,21,21,22,22,23,23,24,24,25,25,26,26,27,27,28,28,29,29,30,30],"right_children":[2,4,6,8,10,12,14,16,18,20,22,24,26,28,30,32,34,36,38,40,42,44,46,48,50,52,54,56,58,60,62,-1,-1,-1,-1,-1,-1,-1,-1,-1,-1,-1,-1,-1,-1,-1,-1,-1,-1,-1,-1,-1,-1,-1,-1,-1,-1,-1,-1,-1,-1,-1,-1],"split_conditions":[5.924E-1,2.5881904E-1,6.123234E-17,-2.5881904E-1,5E-1,9.034E-1,-8.660254E-1,6.01875E-1,3.822E-1,2.3E1,5E0,5E0,5E0,5.0065833E-1,-7.0710677E-1,-7.0710677E-1,-7.0710677E-1,5E0,5.64E0,1.2246469E-16,7.102583E-1,5E0,5E0,1E1,-7.0710677E-1,1E1,9E0,6E0,2.566E1,6.54475E-1,6.084E-1,-8.332567E-3,-3.5231074E-3,1.3467354E-3,1.6794557E-2,5.461064E-3,-4.960592E-3,2.955091E-2,6.5460033E-3,-8.225182E-3,-1.2441558E-2,-1.2933559E-2,1.0090054E-3,-1.6824579E-2,-2.0220388E-2,-9.172763E-3,-1.4998324E-2,2.1033928E-2,9.876865E-3,-7.0277266E-3,4.750032E-3,2.283456E-2,1.7154446E-2,1.0190574E-2,1.8948087E-3,-2.8252823E-3,7.108483E-4,2.4199877E-3,6.0045333E-3,-7.005691E-3,-3.935387E-3,-1.0885975E-2,-1.5072763E-3],"split_indices":[9,5,5,5,4,10,4,11,9,0,0,1,1,11,4,5,5,1,8,4,11,1,1,0,5,0,0,2,8,11,10,0,0,0,0,0,0,0,0,0,0,0,0,0,0,0,0,0,0,0,0,0,0,0,0,0,0,0,0,0,0,0,0],"split_type":[0,0,0,0,0,0,0,0,0,0,0,0,0,0,0,0,0,0,0,0,0,0,0,0,0,0,0,0,0,0,0,0,0,0,0,0,0,0,0,0,0,0,0,0,0,0,0,0,0,0,0,0,0,0,0,0,0,0,0,0,0,0,0],"sum_hessian":[6.988E3,3.573E3,3.415E3,9.26E2,2.647E3,2.88E3,5.35E2,5.08E2,4.18E2,1.488E3,1.159E3,2.068E3,8.12E2,2.81E2,2.54E2,4.92E2,1.6E1,1.25E2,2.93E2,1.211E3,2.77E2,8.71E2,2.88E2,1.774E3,2.94E2,7.17E2,9.5E1,6E1,2.21E2,2.18E2,3.6E1,3.33E2,1.59E2,1.1E1,5E0,4.9E1,7.6E1,3E0,2.9E2,9.37E2,2.74E2,2.75E2,2E0,6.2E2,2.51E2,2.1E2,7.8E1,2.05E2,1.569E3,8.4E1,2.1E2,4.36E2,2.81E2,4.2E1,5.3E1,2.6E1,3.4E1,1.44E2,7.7E1,1.35E2,8.3E1,3.5E1,1E0],"tree_param":{"num_deleted":"0","num_feature":"12","num_nodes":"63","size_leaf_vector":"1"}},{"base_weights":[1.2206816E-5,-8.206537E-2,9.7334966E-2,-5.8847354E-3,-1.117371E-1,6.829138E-2,1.624223E-1,-4.8631974E-2,4.88663E-2,-8.7193646E-2,-1.4485906E-1,8.804495E-2,-8.649728E-3,1.7428407E-1,5.1913068E-2,-5.8573537E-2,5.9144635E-2,6.8506664E-3,7.7153355E-2,-4.2478573E-2,-9.1167115E-2,-1.6046956E-1,-9.7256266E-2,6.912513E-2,1.2674849E-1,2.3868272E-2,-5.7200532E-2,1.4559479E-1,2.0706661E-1,9.2947125E-2,1.8888017E-2,-7.3514776E-3,-2.7872154E-3,1.7005896E-2,5.1146927E-3,5.4147984E-3,-3.6693846E-3,2.7331233E-3,9.308024E-3,1.9032402E-3,-5.1278644E-3,-6.7309397E-3,-9.727592E-3,-1.51448315E-2,-1.8206371E-2,-8.259836E-3,-1.35174785E-2,5.947077E-3,1.3337299E-2,1.9323982E-2,1.0905044E-2,-2.169548E-3,3.0250277E-3,-6.9945105E-3,-3.9311033E-3,1.0288528E-2,1.5719613E-2,2.662806E-2,1.972257E-2,-2.7098178E-4,1.0282758E-2,7.305168E-4,5.5747596E-3],"categories":[],"categories_nodes":[],"categories_segments":[],"categories_sizes":[],"default_left":[0,0,0,0,0,0,0,0,0,0,0,0,0,0,0,0,0,0,0,0,0,0,0,0,0,0,0,0,0,0,0,0,0,0,0,0,0,0,0,0,0,0,0,0,0,0,0,0,0,0,0,0,0,0,0,0,0,0,0,0,0,0,0],"id":7,"left_children":[1,3,5,7,9,11,13,15,17,19,21,23,25,27,29,31,33,35,37,39,41,43,45,47,49,51,53,55,57,59,61,-1,-1,-1,-1,-1,-1,-1,-1,-1,-1,-1,-1,-1,-1,-1,-1,-1,-1,-1,-1,-1,-1,-1,-1,-1,-1,-1,-1,-1,-1,-1,-1],"loss_changes":[5.5836235E1,8.570822E0,6.0343094E0,2.4926214E0,2.2058487E0,3.364215E0,1.2834358E0,6.442019E-1,5.5450034E-1,2.7507496E-1,8.463936E-1,1.280756E0,7.165504E-1,8.0690384E-1,1.2969413E-1,2.493279E-1,3.6542088E-2,3.912397E-1,2.188456E-1,7.1345076E-2,2.0346737E-1,1.4229584E-1,1.494627E-1,7.2709084E-1,6.5792084E-1,7.975066E-2,3.8745284E-2,2.206688E-1,1.8814468E-1,4.0919393E-2,2.30744E-2,0E0,0E0,0E0,0E0,0E0,0E0,0E0,0E0,0E0,0E0,0E0,0E0,0E0,0E0,0E0,0E0,0E0,0E0,0E0,0E0,0E0,0E0,0E0,0E0,0E0,0E0,0E0,0E0,0E0,0E0,0E0,0E0],"parents":[2147483647,0,0,1,1,2,2,3,3,4,4,5,5,6,6,7,7,8,8,9,9,10,10,11,11,12,12,13,13,14,14,15,15,16,16,17,17,18,18,19,19,20,20,21,21,22,22,23,23,24,24,25,25,26,26,27,27,28,28,29,29,30,30],"right_children":[2,4,6,8,10,12,14,16,18,20,22,24,26,28,30,32,34,36,38,40,42,44,46,48,50,52,54,56,58,60,62,-1,-1,-1,-1,-1,-1,-1,-1,-1,-1,-1,-1,-1,-1,-1,-1,-1,-1,-1,-1,-1,-1,-1,-1,-1,-1,-1,-1,-1,-1,-1,-1],"split_conditions":[6.346E-1,2.5881904E-1,8.704E-1,-2.5881904E-1,5E-1,6.123234E-17,5E0,6.01875E-1,4.24E-1,-7.0710677E-1,5E0,8.638E-1,-8.660254E-1,9.722E-1,9E0,-7.0710677E-1,5.056E-1,5E0,4.8524168E-1,2E1,1E0,5E0,5E0,3.122E1,1E1,4.7891667E-1,2.426E1,-7.0710677E-1,9.96E0,8E0,3.148E1,-7.3514776E-3,-2.7872154E-3,1.7005896E-2,5.1146927E-3,5.4147984E-3,-3.6693846E-3,2.7331233E-3,9.308024E-3,1.9032402E-3,-5.1278644E-3,-6.7309397E-3,-9.727592E-3,-1.51448315E-2,-1.8206371E-2,-8.259836E-3,-1.35174785E-2,5.947077E-3,1.3337299E-2,1.9323982E-2,1.0905044E-2,-2.169548E-3,3.0250277E-3,-6.9945105E-3,-3.9311033E-3,1.0288528E-2,1.5719613E-2,2.662806E-2,1.972257E-2,-2.7098178E-4,1.0282758E-2,7.305168E-4,5.5747596E-3],"split_indices":[9,5,10,5,4,5,1,11,9,4,0,9,4,10,0,5,9,1,11,0,0,1,1,8,0,11,8,5,8,0,8,0,0,0,0,0,0,0,0,0,0,0,0,0,0,0,0,0,0,0,0,0,0,0,0,0,0,0,0,0,0,0,0],"split_type":[0,0,0,0,0,0,0,0,0,0,0,0,0,0,0,0,0,0,0,0,0,0,0,0,0,0,0,0,0,0,0,0,0,0,0,0,0,0,0,0,0,0,0,0,0,0,0,0,0,0,0,0,0,0,0,0,0,0,0,0,0,0,0],"sum_hessian":[6.988E3,3.791E3,3.197E3,1.063E3,2.728E3,2.212E3,9.85E2,5.97E2,4.66E2,1.569E3,1.159E3,1.76E3,4.52E2,8.89E2,9.6E1,5.47E2,5E1,1.88E2,2.78E2,1.29E2,1.44E3,8.71E2,2.88E2,1.184E3,5.76E2,2.71E2,1.81E2,4.77E2,4.12E2,4.2E1,5.4E1,3.67E2,1.8E2,2E0,4.8E1,9E1,9.8E1,6.8E1,2.1E2,1.6E1,1.13E2,2.96E2,1.144E3,6.2E2,2.51E2,2.1E2,7.8E1,1.031E3,1.53E2,1.19E2,4.57E2,3.3E1,2.38E2,1.04E2,7.7E1,1.04E2,3.73E2,5.5E1,3.57E2,4E0,3.8E1,4.2E1,1.2E1],"tree_param":{"num_deleted":"0","num_feature":"12","num_nodes":"63","size_leaf_vector":"1"}},{"base_weights":[2.230104E-5,-7.8734845E-2,8.242219E-2,-1.1800682E-2,-1.02137126E-1,1.00290135E-1,-1.3771783E-2,-5.1624257E-2,3.6605045E-2,-7.492278E-2,-1.2512408E-1,1.7573367E-1,8.421977E-2,2.206353E-2,-5.3347416E-2,-5.4791573E-2,7.34358E-2,-7.667942E-3,5.545468E-2,-6.568665E-2,-1.0581689E-1,-1.3875023E-1,-9.800771E-2,1.9364502E-1,7.8159034E-2,9.665366E-2,1.3095454E-3,1.0314301E-2,4.5082387E-2,-4.727738E-2,-8.783364E-2,-6.7224205E-3,-2.842767E-3,1.523255E-3,1.6351448E-2,4.3952335E-3,-4.108802E-3,5.2226186E-3,2.7646387E-2,-5.739774E-3,-8.320912E-3,-1.2456394E-2,-9.491815E-3,-1.4557074E-2,-1.0949086E-2,-8.225072E-3,-1.1541536E-2,2.280876E-2,1.7448822E-2,8.922202E-4,8.680987E-3,7.4797035E-3,1.3501445E-2,-3.0485839E-3,5.4290663E-3,-1.7401082E-3,1.6992951E-3,1.1750024E-3,5.438279E-3,-5.737563E-3,-3.0364997E-3,-1.1297319E-2,-7.285256E-3],"categories":[],"categories_nodes":[],"categories_segments":[],"categories_sizes":[],"default_left":[0,0,0,0,0,0,0,0,0,0,0,0,0,0,0,0,0,0,0,0,0,0,0,0,0,0,0,0,0,0,0,0,0,0,0,0,0,0,0,0,0,0,0,0,0,0,0,0,0,0,0,0,0,0,0,0,0,0,0,0,0,0,0],"id":8,"left_children":[1,3,5,7,9,11,13,15,17,19,21,23,25,27,29,31,33,35,37,39,41,43,45,47,49,51,53,55,57,59,61,-1,-1,-1,-1,-1,-1,-1,-1,-1,-1,-1,-1,-1,-1,-1,-1,-1,-1,-1,-1,-1,-1,-1,-1,-1,-1,-1,-1,-1,-1,-1,-1],"loss_changes":[4.536217E1,5.597151E0,5.8727627E0,1.7888577E0,1.64715E0,3.4781399E0,7.61335E-1,2.0564091E-1,3.5009313E-1,3.3973932E-1,5.162525E-1,8.674507E-1,2.4503155E0,7.5803E-2,4.9227297E-2,1.6099203E-1,6.56666E-2,2.1917525E-1,1.9533807E-1,1.3146114E-1,4.4977188E-2,1.7404366E-1,1.2299013E-1,2.4128056E-1,4.714197E-2,1.7229519E0,5.255516E-1,3.5094753E-2,2.8811425E-2,3.565982E-2,5.7044625E-3,0E0,0E0,0E0,0E0,0E0,0E0,0E0,0E0,0E0,0E0,0E0,0E0,0E0,0E0,0E0,0E0,0E0,0E0,0E0,0E0,0E0,0E0,0E0,0E0,0E0,0E0,0E0,0E0,0E0,0E0,0E0,0E0],"parents":[2147483647,0,0,1,1,2,2,3,3,4,4,5,5,6,6,7,7,8,8,9,9,10,10,11,11,12,12,13,13,14,14,15,15,16,16,17,17,18,18,19,19,20,20,21,21,22,22,23,23,24,24,25,25,26,26,27,27,28,28,29,29,30,30],"right_children":[2,4,6,8,10,12,14,16,18,20,22,24,26,28,30,32,34,36,38,40,42,44,46,48,50,52,54,56,58,60,62,-1,-1,-1,-1,-1,-1,-1,-1,-1,-1,-1,-1,-1,-1,-1,-1,-1,-1,-1,-1,-1,-1,-1,-1,-1,-1,-1,-1,-1,-1,-1,-1],"split_conditions":[5.924E-1,2.5881904E-1,6.123234E-17,-2.5881904E-1,1.2246469E-16,9E0,-8.660254E-1,6.1824167E-1,3.822E-1,2.3E1,3.548E-1,5E0,5E0,6.5098333E-1,-7.0710677E-1,-7.0710677E-1,-7.0710677E-1,5E0,7.027917E-1,5E0,6.143E-1,4.048E-1,1.298E1,1.352E1,8E0,2.676E1,1.7E1,4.7891667E-1,7.778E-1,6.54475E-1,3.84E-1,-6.7224205E-3,-2.842767E-3,1.523255E-3,1.6351448E-2,4.3952335E-3,-4.108802E-3,5.2226186E-3,2.7646387E-2,-5.739774E-3,-8.320912E-3,-1.2456394E-2,-9.491815E-3,-1.4557074E-2,-1.0949086E-2,-8.225072E-3,-1.1541536E-2,2.280876E-2,1.7448822E-2,8.922202E-4,8.680987E-3,7.4797035E-3,1.3501445E-2,-3.0485839E-3,5.4290663E-3,-1.7401082E-3,1.6992951E-3,1.1750024E-3,5.438279E-3,-5.737563E-3,-3.0364997E-3,-1.1297319E-2,-7.285256E-3],"split_indices":[9,5,5,5,4,0,4,11,9,0,10,1,1,11,4,5,5,1,11,1,11,9,8,8,0,8,0,11,9,11,10,0,0,0,0,0,0,0,0,0,0,0,0,0,0,0,0,0,0,0,0,0,0,0,0,0,0,0,0,0,0,0,0],"split_type":[0,0,0,0,0,0,0,0,0,0,0,0,0,0,0,0,0,0,0,0,0,0,0,0,0,0,0,0,0,0,0,0,0,0,0,0,0,0,0,0,0,0,0,0,0,0,0,0,0,0,0,0,0,0,0,0,0,0,0,0,0,0,0],"sum_hessian":[6.988E3,3.573E3,3.415E3,9.26E2,2.647E3,2.88E3,5.35E2,5.08E2,4.18E2,1.214E3,1.433E3,5.04E2,2.376E3,2.81E2,2.54E2,4.96E2,1.2E1,1.25E2,2.93E2,9.37E2,2.77E2,9.51E2,4.82E2,4.25E2,7.9E1,2.066E3,3.1E2,1.87E2,9.4E1,2.18E2,3.6E1,3.36E2,1.6E2,8E0,4E0,4.9E1,7.6E1,2.9E2,3E0,6.39E2,2.98E2,9.8E1,1.79E2,7.68E2,1.83E2,2.56E2,2.26E2,1.48E2,2.77E2,9E0,7E1,1.318E3,7.48E2,1.94E2,1.16E2,3.6E1,1.51E2,2.1E1,7.3E1,1.35E2,8.3E1,1.1E1,2.5E1],"tree_param":{"num_deleted":"0","num_feature":"12","num_nodes":"63","size_leaf_vector":"1"}},{"base_weights":[2.1861839E-5,-7.087251E-2,7.41953E-2,-1.0575893E-2,-9.195412E-2,4.3242697E-2,1.20220736E-1,-4.6445522E-2,3.3023667E-2,-7.1974024E-2,-1.175217E-1,5.623389E-2,-4.8119966E-2,1.3021009E-1,4.0883753E-2,-4.9799323E-2,5.354682E-2,5.8757868E-2,5.873052E-3,-6.656104E-2,-9.531417E-2,-1.3106452E-1,-7.6252274E-2,6.8101004E-2,1.7189084E-5,-4.2589717E-2,-7.955251E-2,1.6724494E-1,1.0315338E-1,9.040519E-4,6.34894E-2,-5.7428307E-3,-1.5000332E-3,1.26474295E-2,2.2705387E-4,1.111089E-2,4.050902E-3,-5.526453E-3,4.9639377E-3,-5.913298E-3,-9.165547E-3,-5.9531755E-3,-9.972679E-3,-1.1304957E-2,-1.4007903E-2,-6.3189203E-3,-1.1017705E-2,1.6436107E-2,5.877416E-3,-6.792698E-3,2.096657E-3,-4.917541E-3,-2.1035005E-3,-1.042481E-2,-6.654495E-3,1.4007521E-2,1.8917842E-2,8.218679E-3,1.3067755E-2,-1.1651327E-3,4.4295434E-3,2.95254E-3,7.927033E-3],"categories":[],"categories_nodes":[],"categories_segments":[],"categories_sizes":[],"default_left":[0,0,0,0,0,0,0,0,0,0,0,0,0,0,0,0,0,0,0,0,0,0,0,0,0,0,0,0,0,0,0,0,0,0,0,0,0,0,0,0,0,0,0,0,0,0,0,0,0,0,0,0,0,0,0,0,0,0,0,0,0,0,0],"id":9,"left_children":[1,3,5,7,9,11,13,15,17,19,21,23,25,27,29,31,33,35,37,39,41,43,45,47,49,51,53,55,57,59,61,-1,-1,-1,-1,-1,-1,-1,-1,-1,-1,-1,-1,-1,-1,-1,-1,-1,-1,-1,-1,-1,-1,-1,-1,-1,-1,-1,-1,-1,-1,-1,-1],"loss_changes":[3.675677E1,4.542118E0,4.8612595E0,1.451269E0,1.3442516E0,2.4287498E0,1.0828114E0,1.7336214E-1,2.9240993E-1,1.8177605E-1,6.383362E-1,1.1941614E0,4.0938556E-2,1.204237E0,1.4002645E-1,1.3002074E-1,6.328347E-2,2.0089847E-1,5.512755E-1,2.2049999E-1,3.795743E-2,1.2577248E-1,1.2111187E-1,1.3172922E0,4.469447E-1,3.0053198E-2,4.948288E-3,2.7921104E-1,3.9726114E-1,3.156943E-2,5.0721943E-2,0E0,0E0,0E0,0E0,0E0,0E0,0E0,0E0,0E0,0E0,0E0,0E0,0E0,0E0,0E0,0E0,0E0,0E0,0E0,0E0,0E0,0E0,0E0,0E0,0E0,0E0,0E0,0E0,0E0,0E0,0E0,0E0],"parents":[2147483647,0,0,1,1,2,2,3,3,4,4,5,5,6,6,7,7,8,8,9,9,10,10,11,11,12,12,13,13,14,14,15,15,16,16,17,17,18,18,19,19,20,20,21,21,22,22,23,23,24,24,25,25,26,26,27,27,28,28,29,29,30,30],"right_children":[2,4,6,8,10,12,14,16,18,20,22,24,26,28,30,32,34,36,38,40,42,44,46,48,50,52,54,56,58,60,62,-1,-1,-1,-1,-1,-1,-1,-1,-1,-1,-1,-1,-1,-1,-1,-1,-1,-1,-1,-1,-1,-1,-1,-1,-1,-1,-1,-1,-1,-1,-1,-1],"split_conditions":[5.924E-1,2.5881904E-1,8.192E-1,-2.5881904E-1,5E-1,5E-1,5E0,6.01875E-1,5E0,2.3E1,5E0,5E0,-7.0710677E-1,1E1,-5E-1,3.162E1,2.014E1,4E0,7E0,1.2246469E-16,8.64E0,3E0,5E0,1E1,-7.0710677E-1,2.888E1,3.8E-1,6.4675E-1,3.024E1,6.070333E-1,6.574E-1,-5.7428307E-3,-1.5000332E-3,1.26474295E-2,2.2705387E-4,1.111089E-2,4.050902E-3,-5.526453E-3,4.9639377E-3,-5.913298E-3,-9.165547E-3,-5.9531755E-3,-9.972679E-3,-1.1304957E-2,-1.4007903E-2,-6.3189203E-3,-1.1017705E-2,1.6436107E-2,5.877416E-3,-6.792698E-3,2.096657E-3,-4.917541E-3,-2.1035005E-3,-1.042481E-2,-6.654495E-3,1.4007521E-2,1.8917842E-2,8.218679E-3,1.3067755E-2,-1.1651327E-3,4.4295434E-3,2.95254E-3,7.927033E-3],"split_indices":[9,5,10,5,4,5,1,11,1,0,0,1,4,0,5,8,8,2,0,4,8,0,1,0,5,8,10,11,8,11,9,0,0,0,0,0,0,0,0,0,0,0,0,0,0,0,0,0,0,0,0,0,0,0,0,0,0,0,0,0,0,0,0],"split_type":[0,0,0,0,0,0,0,0,0,0,0,0,0,0,0,0,0,0,0,0,0,0,0,0,0,0,0,0,0,0,0,0,0,0,0,0,0,0,0,0,0,0,0,0,0,0,0,0,0,0,0,0,0,0,0,0,0,0,0,0,0,0,0],"sum_hessian":[6.988E3,3.573E3,3.415E3,9.26E2,2.647E3,2.043E3,1.372E3,5.08E2,4.18E2,1.488E3,1.159E3,1.789E3,2.54E2,1.218E3,1.54E2,4.92E2,1.6E1,2.14E2,2.04E2,1.211E3,2.77E2,8.71E2,2.88E2,1.477E3,3.12E2,2.18E2,3.6E1,5.12E2,7.06E2,5.6E1,9.8E1,4.03E2,8.9E1,6E0,1E1,5.4E1,1.6E2,8.5E1,1.19E2,9.37E2,2.74E2,3.2E1,2.45E2,2.95E2,5.76E2,2.1E2,7.8E1,1.29E2,1.348E3,7.3E1,2.39E2,1.66E2,5.2E1,1E1,2.6E1,2.32E2,2.8E2,4.03E2,3.03E2,4.4E1,1.2E1,3.2E1,6.6E1],"tree_param":{"num_deleted":"0","num_feature":"12","num_nodes":"63","size_leaf_vector":"1"}},{"base_weights":[2.0879354E-5,-6.380021E-2,6.6793874E-2,-9.496479E-3,-8.278652E-2,8.156942E-2,-1.2749326E-2,-4.1789893E-2,2.9756134E-2,-6.4797446E-2,-1.05806306E-1,4.3313477E-2,1.05592765E-1,1.5014145E-2,-4.3402463E-2,-5.399255E-2,-1.6021974E-2,5.295259E-2,5.2829925E-3,-7.09754E-2,-4.8029967E-2,-1.1798711E-1,-6.868703E-2,5.174558E-2,-5.310637E-2,1.20130315E-1,3.4292944E-2,8.755539E-3,5.0569143E-2,-7.2790615E-2,-3.839621E-2,9.432091E-3,-5.734319E-3,-2.62439E-3,9.6103335E-3,4.7211405E-3,1.9560428E-2,-4.980236E-3,4.4716806E-3,-7.599509E-3,-5.175223E-3,-8.091964E-3,-4.0653534E-3,-1.0368036E-2,-1.2918924E-2,-3.6687616E-3,-7.973034E-3,3.147722E-3,8.779059E-3,-9.747892E-3,-3.9035946E-3,1.3306299E-2,4.570604E-3,6.5224394E-3,2.2992003E-3,-8.1720966E-4,1.8545109E-3,-9.1561675E-4,5.378431E-3,-3.0341584E-3,-8.026904E-3,-4.6075075E-3,-2.1971937E-3],"categories":[],"categories_nodes":[],"categories_segments":[],"categories_sizes":[],"default_left":[0,0,0,0,0,0,0,0,0,0,0,0,0,0,0,0,0,0,0,0,0,0,0,0,0,0,0,0,0,0,0,0,0,0,0,0,0,0,0,0,0,0,0,0,0,0,0,0,0,0,0,0,0,0,0,0,0,0,0,0,0,0,0],"id":10,"left_children":[1,3,5,7,9,11,13,15,17,19,21,23,25,27,29,31,33,35,37,39,41,43,45,47,49,51,53,55,57,59,61,-1,-1,-1,-1,-1,-1,-1,-1,-1,-1,-1,-1,-1,-1,-1,-1,-1,-1,-1,-1,-1,-1,-1,-1,-1,-1,-1,-1,-1,-1,-1,-1],"loss_changes":[2.978806E1,3.6841059E0,4.0158463E0,1.1763096E0,1.0896931E0,2.6431694E0,4.5680773E-1,1.5918344E-1,2.3758245E-1,1.5083504E-1,5.1638126E-1,9.0764165E-1,1.8294907E0,6.230922E-2,3.472191E-2,1.7685449E-1,1.9163463E-1,1.66848E-1,4.4753322E-1,1.0086012E-1,9.472418E-2,1.2635708E-1,9.920144E-2,7.4534345E-1,5.238548E-2,1.4078388E0,1.03716284E-1,4.0088683E-2,8.557595E-3,8.992761E-3,2.6734024E-2,0E0,0E0,0E0,0E0,0E0,0E0,0E0,0E0,0E0,0E0,0E0,0E0,0E0,0E0,0E0,0E0,0E0,0E0,0E0,0E0,0E0,0E0,0E0,0E0,0E0,0E0,0E0,0E0,0E0,0E0,0E0,0E0],"parents":[2147483647,0,0,1,1,2,2,3,3,4,4,5,5,6,6,7,7,8,8,9,9,10,10,11,11,12,12,13,13,14,14,15,15,16,16,17,17,18,18,19,19,20,20,21,21,22,22,23,23,24,24,25,25,26,26,27,27,28,28,29,29,30,30],"right_children":[2,4,6,8,10,12,14,16,18,20,22,24,26,28,30,32,34,36,38,40,42,44,46,48,50,52,54,56,58,60,62,-1,-1,-1,-1,-1,-1,-1,-1,-1,-1,-1,-1,-1,-1,-1,-1,-1,-1,-1,-1,-1,-1,-1,-1,-1,-1,-1,-1,-1,-1,-1,-1],"split_conditions":[5.924E-1,2.5881904E-1,6.123234E-17,-2.5881904E-1,5E-1,-7.0710677E-1,-8.660254E-1,-7.0710677E-1,5E0,4.658E-1,5E0,5E0,5E0,3.122E1,3.936E-1,2E0,5.369083E-1,6.9243336E-1,7E0,6.644083E-1,-7.818315E-1,1.204E1,8.76E0,2.676E1,-8.660254E-1,1.8E1,9E0,6.160333E-1,5.562E-1,3E0,2.796E1,9.432091E-3,-5.734319E-3,-2.62439E-3,9.6103335E-3,4.7211405E-3,1.9560428E-2,-4.980236E-3,4.4716806E-3,-7.599509E-3,-5.175223E-3,-8.091964E-3,-4.0653534E-3,-1.0368036E-2,-1.2918924E-2,-3.6687616E-3,-7.973034E-3,3.147722E-3,8.779059E-3,-9.747892E-3,-3.9035946E-3,1.3306299E-2,4.570604E-3,6.5224394E-3,2.2992003E-3,-8.1720966E-4,1.8545109E-3,-9.1561675E-4,5.378431E-3,-3.0341584E-3,-8.026904E-3,-4.6075075E-3,-2.1971937E-3],"split_indices":[9,5,5,5,4,5,4,5,1,10,0,1,1,8,10,1,11,11,0,11,6,8,8,8,5,0,0,11,10,2,8,0,0,0,0,0,0,0,0,0,0,0,0,0,0,0,0,0,0,0,0,0,0,0,0,0,0,0,0,0,0,0,0],"split_type":[0,0,0,0,0,0,0,0,0,0,0,0,0,0,0,0,0,0,0,0,0,0,0,0,0,0,0,0,0,0,0,0,0,0,0,0,0,0,0,0,0,0,0,0,0,0,0,0,0,0,0,0,0,0,0,0,0,0,0,0,0,0,0],"sum_hessian":[6.988E3,3.573E3,3.415E3,9.26E2,2.647E3,2.88E3,5.35E2,5.08E2,4.18E2,1.488E3,1.159E3,1.112E3,1.768E3,2.81E2,2.54E2,3.44E2,1.64E2,2.14E2,2.04E2,1.085E3,4.03E2,8.71E2,2.88E2,1.023E3,8.9E1,1.468E3,3E2,2.4E2,4.1E1,3.5E1,2.19E2,7E0,3.37E2,1.51E2,1.3E1,2.07E2,7E0,8.5E1,1.19E2,8.58E2,2.27E2,7.2E1,3.31E2,3.87E2,4.84E2,7.5E1,2.13E2,6.56E2,3.67E2,2E1,6.9E1,1.25E3,2.18E2,7.9E1,2.21E2,8.8E1,1.52E2,2E0,3.9E1,6E0,2.9E1,1.48E2,7.1E1],"tree_param":{"num_deleted":"0","num_feature":"12","num_nodes":"63","size_leaf_vector":"1"}},{"base_weights":[1.6957476E-5,-5.7427295E-2,6.011817E-2,-8.509665E-3,-7.4530475E-2,3.419367E-2,9.890412E-2,-3.758991E-2,2.6837246E-2,-5.436154E-2,-9.156724E-2,4.913123E-2,-1.7950159E-2,1.4011541E-1,7.759643E-2,9.916297E-2,-3.9418302E-2,4.7770243E-2,4.752212E-3,-4.6986993E-2,-7.904846E-2,-1.09684765E-1,-7.9205535E-2,2.7746795E-2,8.238188E-2,8.471296E-3,-3.909987E-2,1.4529663E-1,2.3650711E-2,9.298382E-2,3.9536558E-2,1.0811022E-2,2.2739768E-3,8.606785E-3,-4.13628E-3,9.502508E-3,3.1330583E-3,-4.4880062E-3,4.028241E-3,-3.1953517E-3,-5.407529E-3,-9.618155E-3,-7.005693E-3,-1.0158322E-2,-1.2795803E-2,-6.568588E-3,-9.257173E-3,3.7748364E-4,5.481211E-3,1.03160525E-2,4.161216E-3,-3.1256347E-3,1.2250047E-3,-3.4239895E-3,-6.6677565E-3,1.862841E-2,1.2888314E-2,8.627144E-3,8.421067E-4,6.9866213E-3,1.3336301E-2,2.4700998E-3,6.57884E-3],"categories":[],"categories_nodes":[],"categories_segments":[],"categories_sizes":[],"default_left":[0,0,0,0,0,0,0,0,0,0,0,0,0,0,0,0,0,0,0,0,0,0,0,0,0,0,0,0,0,0,0,0,0,0,0,0,0,0,0,0,0,0,0,0,0,0,0,0,0,0,0,0,0,0,0,0,0,0,0,0,0,0,0],"id":11,"left_children":[1,3,5,7,9,11,13,15,17,19,21,23,25,27,29,31,33,35,37,39,41,43,45,47,49,51,53,55,57,59,61,-1,-1,-1,-1,-1,-1,-1,-1,-1,-1,-1,-1,-1,-1,-1,-1,-1,-1,-1,-1,-1,-1,-1,-1,-1,-1,-1,-1,-1,-1,-1,-1],"loss_changes":[2.413276E1,2.989542E0,3.431428E0,9.5386916E-1,9.049101E-1,1.5968513E0,1.1903925E0,1.3117796E-1,1.9347918E-1,2.1748233E-1,3.1247616E-1,1.1304111E0,2.557056E-1,2.7715874E-1,5.2574396E-1,2.3280382E-3,1.262958E-1,1.6404629E-1,3.6331403E-1,9.8227024E-2,3.6088467E-2,7.271767E-2,1.4860392E-1,6.297864E-1,5.2347565E-1,3.1007545E-2,3.17598E-2,2.7536297E-1,1.9301021E-2,5.909033E-1,1.0041362E-1,0E0,0E0,0E0,0E0,0E0,0E0,0E0,0E0,0E0,0E0,0E0,0E0,0E0,0E0,0E0,0E0,0E0,0E0,0E0,0E0,0E0,0E0,0E0,0E0,0E0,0E0,0E0,0E0,0E0,0E0,0E0,0E0],"parents":[2147483647,0,0,1,1,2,2,3,3,4,4,5,5,6,6,7,7,8,8,9,9,10,10,11,11,12,12,13,13,14,14,15,15,16,16,17,17,18,18,19,19,20,20,21,21,22,22,23,23,24,24,25,25,26,26,27,27,28,28,29,29,30,30],"right_children":[2,4,6,8,10,12,14,16,18,20,22,24,26,28,30,32,34,36,38,40,42,44,46,48,50,52,54,56,58,60,62,-1,-1,-1,-1,-1,-1,-1,-1,-1,-1,-1,-1,-1,-1,-1,-1,-1,-1,-1,-1,-1,-1,-1,-1,-1,-1,-1,-1,-1,-1,-1,-1],"split_conditions":[5.924E-1,2.5881904E-1,8.434E-1,-2.5881904E-1,1.2246469E-16,6.123234E-17,1E1,1E1,5E0,2.3E1,2.864E-1,-5E-1,-8.660254E-1,5E0,1.8E1,9E0,2E0,4E0,7E0,1.328E1,6.090583E-1,5E0,1.298E1,6.3429165E-1,5E0,4.6673334E-1,-7.0710677E-1,1.226E1,4.9305E-1,1.6E1,6.6745836E-1,1.0811022E-2,2.2739768E-3,8.606785E-3,-4.13628E-3,9.502508E-3,3.1330583E-3,-4.4880062E-3,4.028241E-3,-3.1953517E-3,-5.407529E-3,-9.618155E-3,-7.005693E-3,-1.0158322E-2,-1.2795803E-2,-6.568588E-3,-9.257173E-3,3.7748364E-4,5.481211E-3,1.03160525E-2,4.161216E-3,-3.1256347E-3,1.2250047E-3,-3.4239895E-3,-6.6677565E-3,1.862841E-2,1.2888314E-2,8.627144E-3,8.421067E-4,6.9866213E-3,1.3336301E-2,2.4700998E-3,6.57884E-3],"split_indices":[9,5,9,5,4,5,0,0,1,0,10,5,4,1,0,0,1,2,0,8,11,1,8,11,1,11,4,8,11,0,11,0,0,0,0,0,0,0,0,0,0,0,0,0,0,0,0,0,0,0,0,0,0,0,0,0,0,0,0,0,0,0,0],"split_type":[0,0,0,0,0,0,0,0,0,0,0,0,0,0,0,0,0,0,0,0,0,0,0,0,0,0,0,0,0,0,0,0,0,0,0,0,0,0,0,0,0,0,0,0,0,0,0,0,0,0,0,0,0,0,0,0,0,0,0,0,0,0,0],"sum_hessian":[6.988E3,3.573E3,3.415E3,9.26E2,2.647E3,2.048E3,1.367E3,5.08E2,4.18E2,1.214E3,1.433E3,1.592E3,4.56E2,4.64E2,9.03E2,6E0,5.02E2,2.14E2,2.04E2,9.37E2,2.77E2,5.78E2,8.55E2,9.7E2,6.22E2,2.03E2,2.53E2,4.44E2,2E1,6.42E2,2.61E2,5E0,1E0,7E0,4.95E2,5.4E1,1.6E2,8.5E1,1.19E2,3.02E2,6.35E2,9.2E1,1.85E2,4.05E2,1.73E2,4.28E2,4.27E2,5.15E2,4.55E2,4.11E2,2.11E2,1.7E1,1.86E2,2.17E2,3.6E1,1.24E2,3.2E2,3E0,1.7E1,4.1E2,2.32E2,1.68E2,9.3E1],"tree_param":{"num_deleted":"0","num_feature":"12","num_nodes":"63","size_leaf_vector":"1"}},{"base_weights":[2.1619202E-5,-5.1694155E-2,5.4129392E-2,-6.999877E-2,-1.3686915E-2,3.5355445E-2,9.788857E-2,-8.420182E-2,-5.3290963E-2,-3.149578E-2,2.1555893E-2,4.863478E-2,-1.0939751E-2,4.6318177E-2,1.120882E-1,-6.786722E-2,-1.046724E-1,-5.5134192E-2,-8.401647E-3,1.3141682E-2,-3.5067674E-2,-5.7360176E-3,5.4246414E-2,3.0149823E-2,7.141591E-2,1.128728E-2,-3.5303E-2,8.145567E-2,3.0704921E-2,9.247998E-2,1.336719E-1,-4.548668E-3,-7.498698E-3,-1.2215616E-2,-8.626602E-3,-4.840941E-3,-6.600678E-3,3.398874E-3,-4.06865E-3,-1.1373262E-3,4.3751355E-3,-3.920728E-3,-5.4638606E-4,-3.929017E-3,7.289694E-4,2.3413124E-2,4.9824785E-3,1.0915018E-2,2.616904E-3,1.49194915E-2,6.625204E-3,5.974291E-4,4.211241E-3,-3.25251E-3,-7.758108E-3,8.716648E-3,-7.1334066E-3,-4.4997592E-4,4.7847196E-3,8.123013E-3,1.2907408E-2,1.1620633E-2,1.5800571E-2],"categories":[],"categories_nodes":[],"categories_segments":[],"categories_sizes":[],"default_left":[0,0,0,0,0,0,0,0,0,0,0,0,0,0,0,0,0,0,0,0,0,0,0,0,0,0,0,0,0,0,0,0,0,0,0,0,0,0,0,0,0,0,0,0,0,0,0,0,0,0,0,0,0,0,0,0,0,0,0,0,0,0,0],"id":12,"left_children":[1,3,5,7,9,11,13,15,17,19,21,23,25,27,29,31,33,35,37,39,41,43,45,47,49,51,53,55,57,59,61,-1,-1,-1,-1,-1,-1,-1,-1,-1,-1,-1,-1,-1,-1,-1,-1,-1,-1,-1,-1,-1,-1,-1,-1,-1,-1,-1,-1,-1,-1,-1,-1],"loss_changes":[1.9559597E1,2.4855003E0,2.8028946E0,5.678854E-1,7.306177E-1,1.4710603E0,7.4539566E-1,4.2825794E-1,9.146261E-2,1.2370825E-1,3.4915617E-1,7.806864E-1,2.8957164E-1,1.1983907E-1,3.2748127E-1,1.1243224E-1,1.7482662E-1,7.481909E-2,6.296841E-2,4.402047E-2,8.7530136E-2,9.381869E-2,1.2991291E-1,3.2043236E-1,3.2428026E-1,4.5605015E-2,2.7424932E-2,6.555158E-2,9.435946E-2,1.6406703E-1,1.4314032E-1,0E0,0E0,0E0,0E0,0E0,0E0,0E0,0E0,0E0,0E0,0E0,0E0,0E0,0E0,0E0,0E0,0E0,0E0,0E0,0E0,0E0,0E0,0E0,0E0,0E0,0E0,0E0,0E0,0E0,0E0,0E0,0E0],"parents":[2147483647,0,0,1,1,2,2,3,3,4,4,5,5,6,6,7,7,8,8,9,9,10,10,11,11,12,12,13,13,14,14,15,15,16,16,17,17,18,18,19,19,20,20,21,21,22,22,23,23,24,24,25,25,26,26,27,27,28,28,29,29,30,30],"right_children":[2,4,6,8,10,12,14,16,18,20,22,24,26,28,30,32,34,36,38,40,42,44,46,48,50,52,54,56,58,60,62,-1,-1,-1,-1,-1,-1,-1,-1,-1,-1,-1,-1,-1,-1,-1,-1,-1,-1,-1,-1,-1,-1,-1,-1,-1,-1,-1,-1,-1,-1,-1,-1],"split_conditions":[5.924E-1,4.782E-1,8.704E-1,5E0,7.0710677E-1,6.123234E-17,6.2715834E-1,3E0,1E0,-8.660254E-1,4.24E-1,8.186E-1,-8.660254E-1,3E0,9.722E-1,1E0,4E0,5E0,4E0,4.8035833E-1,3.122E1,6E0,5.64E0,8E0,9E0,3.122E1,-2.5881904E-1,1.2E1,-5E-1,6.7735E-1,9.842E-1,-4.548668E-3,-7.498698E-3,-1.2215616E-2,-8.626602E-3,-4.840941E-3,-6.600678E-3,3.398874E-3,-4.06865E-3,-1.1373262E-3,4.3751355E-3,-3.920728E-3,-5.4638606E-4,-3.929017E-3,7.289694E-4,2.3413124E-2,4.9824785E-3,1.0915018E-2,2.616904E-3,1.49194915E-2,6.625204E-3,5.974291E-4,4.211241E-3,-3.25251E-3,-7.758108E-3,8.716648E-3,-7.1334066E-3,-4.4997592E-4,4.7847196E-3,8.123013E-3,1.2907408E-2,1.1620633E-2,1.5800571E-2],"split_indices":[9,10,10,0,4,5,11,0,4,4,9,9,4,1,10,0,0,1,1,11,8,0,8,0,0,8,4,2,5,11,9,0,0,0,0,0,0,0,0,0,0,0,0,0,0,0,0,0,0,0,0,0,0,0,0,0,0,0,0,0,0,0,0],"split_type":[0,0,0,0,0,0,0,0,0,0,0,0,0,0,0,0,0,0,0,0,0,0,0,0,0,0,0,0,0,0,0,0,0,0,0,0,0,0,0,0,0,0,0,0,0,0,0,0,0,0,0,0,0,0,0,0,0,0,0,0,0,0,0],"sum_hessian":[6.988E3,3.573E3,3.415E3,2.411E3,1.162E3,2.391E3,1.024E3,1.301E3,1.11E3,7.72E2,3.9E2,1.858E3,5.33E2,2.22E2,8.02E2,7.26E2,5.75E2,1.066E3,4.4E1,5.7E1,7.15E2,2.13E2,1.77E2,1.027E3,8.31E2,2.79E2,2.54E2,6.7E1,1.55E2,4.23E2,3.79E2,1.77E2,5.49E2,2.92E2,2.83E2,6.62E2,4.04E2,1.9E1,2.5E1,3.2E1,2.5E1,6.27E2,8.8E1,5.9E1,1.54E2,3E0,1.74E2,4.8E1,9.79E2,5E1,7.81E2,2.39E2,4E1,2.4E2,1.4E1,6.5E1,2E0,5.1E1,1.04E2,3.26E2,9.7E1,2.24E2,1.55E2],"tree_param":{"num_deleted":"0","num_feature":"12","num_nodes":"63","size_leaf_vector":"1"}},{"base_weights":[2.8365032E-5,-4.10851E-2,5.5416945E-2,-5.831382E-2,2.1404878E-4,4.1074306E-2,9.766755E-2,-7.328593E-2,-4.3922633E-2,-1.656791E-2,3.4731425E-2,5.031268E-2,-3.3479885E-3,5.468951E-2,1.0729236E-1,-4.9654543E-2,-8.715849E-2,-3.855368E-2,-6.685019E-2,1.9695997E-2,-2.3481531E-2,1.4704447E-2,7.1584865E-2,3.6557484E-2,7.907935E-2,1.0250304E-2,-3.1943202E-2,8.74813E-2,3.717666E-2,4.6052057E-2,1.127484E-1,-3.6677793E-3,-6.0163126E-3,-7.960486E-3,-1.0542696E-2,-5.7417187E-3,-3.2664489E-3,-3.3591387E-3,-7.097182E-3,5.3681073E-5,7.2649727E-3,-3.2128324E-3,1.11071386E-4,-1.5783098E-3,2.516714E-3,6.5205554E-3,3.326659E-2,1.2060254E-2,3.0466204E-3,8.459457E-3,2.754123E-3,-7.0144347E-4,1.9224584E-3,-4.649453E-3,-1.1572655E-3,1.0810069E-2,5.032009E-3,4.5598866E-4,5.503989E-3,1.8054929E-3,9.372839E-3,1.1070947E-2,2.8391683E-2],"categories":[],"categories_nodes":[],"categories_segments":[],"categories_sizes":[],"default_left":[0,0,0,0,0,0,0,0,0,0,0,0,0,0,0,0,0,0,0,0,0,0,0,0,0,0,0,0,0,0,0,0,0,0,0,0,0,0,0,0,0,0,0,0,0,0,0,0,0,0,0,0,0,0,0,0,0,0,0,0,0,0,0],"id":13,"left_children":[1,3,5,7,9,11,13,15,17,19,21,23,25,27,29,31,33,35,37,39,41,43,45,47,49,51,53,55,57,59,61,-1,-1,-1,-1,-1,-1,-1,-1,-1,-1,-1,-1,-1,-1,-1,-1,-1,-1,-1,-1,-1,-1,-1,-1,-1,-1,-1,-1,-1,-1,-1,-1],"loss_changes":[1.5917743E1,2.8546762E0,1.8006124E0,6.0676765E-1,6.852716E-1,9.13286E-1,3.0602932E-1,4.5004177E-1,1.7542076E-1,2.0003156E-1,2.845778E-1,7.259717E-1,1.4964432E-1,7.714662E-2,2.002964E-1,6.802261E-2,1.11938E-1,1.2854505E-1,3.503883E-2,1.2982343E-1,1.422945E-1,8.0780625E-2,2.0481873E-1,6.352291E-1,1.6679525E-1,4.0573824E-2,3.6217824E-2,3.1339943E-2,5.3934604E-2,6.771736E-2,1.6540337E-1,0E0,0E0,0E0,0E0,0E0,0E0,0E0,0E0,0E0,0E0,0E0,0E0,0E0,0E0,0E0,0E0,0E0,0E0,0E0,0E0,0E0,0E0,0E0,0E0,0E0,0E0,0E0,0E0,0E0,0E0,0E0,0E0],"parents":[2147483647,0,0,1,1,2,2,3,3,4,4,5,5,6,6,7,7,8,8,9,9,10,10,11,11,12,12,13,13,14,14,15,15,16,16,17,17,18,18,19,19,20,20,21,21,22,22,23,23,24,24,25,25,26,26,27,27,28,28,29,29,30,30],"right_children":[2,4,6,8,10,12,14,16,18,20,22,24,26,28,30,32,34,36,38,40,42,44,46,48,50,52,54,56,58,60,62,-1,-1,-1,-1,-1,-1,-1,-1,-1,-1,-1,-1,-1,-1,-1,-1,-1,-1,-1,-1,-1,-1,-1,-1,-1,-1,-1,-1,-1,-1,-1,-1],"split_conditions":[6.652E-1,5.216E-1,9.034E-1,5E0,8.660254E-1,1.9E1,6.2715834E-1,2E0,2.3E1,-8.660254E-1,4.904E-1,2.662E1,2E1,3E0,-7.0710677E-1,1E0,5E0,4.843E-1,8.64E0,2.662E1,6.265917E-1,-7.818315E-1,7.0545E-1,1.168E1,5E0,7.612E-1,6.569833E-1,6.22325E-1,-5E-1,6.7653334E-1,7.102583E-1,-3.6677793E-3,-6.0163126E-3,-7.960486E-3,-1.0542696E-2,-5.7417187E-3,-3.2664489E-3,-3.3591387E-3,-7.097182E-3,5.3681073E-5,7.2649727E-3,-3.2128324E-3,1.11071386E-4,-1.5783098E-3,2.516714E-3,6.5205554E-3,3.326659E-2,1.2060254E-2,3.0466204E-3,8.459457E-3,2.754123E-3,-7.0144347E-4,1.9224584E-3,-4.649453E-3,-1.1572655E-3,1.0810069E-2,5.032009E-3,4.5598866E-4,5.503989E-3,1.8054929E-3,9.372839E-3,1.1070947E-2,2.8391683E-2],"split_indices":[9,10,10,0,4,0,11,0,0,4,9,8,0,1,5,0,1,11,8,8,11,6,11,8,1,9,11,11,5,11,11,0,0,0,0,0,0,0,0,0,0,0,0,0,0,0,0,0,0,0,0,0,0,0,0,0,0,0,0,0,0,0,0],"split_type":[0,0,0,0,0,0,0,0,0,0,0,0,0,0,0,0,0,0,0,0,0,0,0,0,0,0,0,0,0,0,0,0,0,0,0,0,0,0,0,0,0,0,0,0,0,0,0,0,0,0,0,0,0,0,0,0,0,0,0,0,0,0,0],"sum_hessian":[6.988E3,4.011E3,2.977E3,2.83E3,1.181E3,2.224E3,7.53E2,1.385E3,1.445E3,7.95E2,3.86E2,1.841E3,3.83E2,1.39E2,6.14E2,5.14E2,8.71E2,1.173E3,2.72E2,1.27E2,6.68E2,2.51E2,1.35E2,1.247E3,5.94E2,2.6E2,1.23E2,4.7E1,9.2E1,5.1E1,5.63E2,2.32E2,2.82E2,6.2E2,2.51E2,2.77E2,8.96E2,3.1E1,2.41E2,9.4E1,3.3E1,4.94E2,1.74E2,6.4E1,1.87E2,1.33E2,2E0,8.3E1,1.164E3,5.36E2,5.8E1,8.9E1,1.71E2,7.1E1,5.2E1,2.9E1,1.8E1,3.3E1,5.9E1,3.3E1,1.8E1,5.58E2,5E0],"tree_param":{"num_deleted":"0","num_feature":"12","num_nodes":"63","size_leaf_vector":"1"}},{"base_weights":[3.8614555E-5,3.938616E-2,-4.7022697E-2,5.9139244E-2,-1.0934432E-2,-6.2695225E-3,-5.5967253E-2,3.2111958E-2,7.579055E-2,-4.226838E-2,8.707306E-3,1.0483323E-2,-2.329428E-2,-4.4492774E-2,-7.0272E-2,1.6710868E-2,5.789555E-2,9.117867E-2,3.016816E-2,-4.6873342E-2,-1.1358309E-2,-3.7828647E-2,1.5640266E-2,2.660005E-3,2.6767476E-2,-2.9140195E-2,-6.5371785E-3,-3.2502096E-2,-5.099621E-2,-7.846386E-2,-4.5311533E-2,5.3775064E-3,6.622306E-4,4.519216E-3,7.7069625E-3,1.293471E-2,8.305596E-3,8.002313E-3,2.2755885E-3,-5.0975615E-3,-2.3197548E-3,-6.713488E-3,-4.3602256E-5,-1.6077872E-3,-6.7591444E-3,4.824112E-3,3.6289566E-4,-1.5369528E-4,3.4477727E-3,9.283563E-3,2.432213E-3,-3.3664335E-3,-3.717128E-4,4.944483E-3,-1.3027162E-3,-2.241411E-3,-5.383315E-3,-5.6017E-3,-3.8918299E-3,-8.406444E-3,-5.631155E-3,-3.4548938E-3,-7.3483633E-3],"categories":[],"categories_nodes":[],"categories_segments":[],"categories_sizes":[],"default_left":[0,0,0,0,0,0,0,0,0,0,0,0,0,0,0,0,0,0,0,0,0,0,0,0,0,0,0,0,0,0,0,0,0,0,0,0,0,0,0,0,0,0,0,0,0,0,0,0,0,0,0,0,0,0,0,0,0,0,0,0,0,0,0],"id":14,"left_children":[1,3,5,7,9,11,13,15,17,19,21,23,25,27,29,31,33,35,37,39,41,43,45,47,49,51,53,55,57,59,61,-1,-1,-1,-1,-1,-1,-1,-1,-1,-1,-1,-1,-1,-1,-1,-1,-1,-1,-1,-1,-1,-1,-1,-1,-1,-1,-1,-1,-1,-1,-1,-1],"loss_changes":[1.2943712E1,3.7847548E0,1.1599131E0,1.2279749E0,6.613648E-1,1.6395654E-1,4.252777E-1,4.136001E-1,1.1844034E0,5.839622E-2,2.1385133E-1,3.6873672E-2,2.7728274E-2,1.1149216E-1,2.3363304E-1,2.445644E-1,9.151173E-2,3.811369E-1,1.5634161E-1,3.3782303E-2,3.347715E-2,5.4586574E-2,2.253744E-1,2.6359905E-2,1.2928635E-2,2.4143547E-2,2.7893301E-2,1.091845E-1,5.476141E-2,1.0345125E-1,8.508742E-2,0E0,0E0,0E0,0E0,0E0,0E0,0E0,0E0,0E0,0E0,0E0,0E0,0E0,0E0,0E0,0E0,0E0,0E0,0E0,0E0,0E0,0E0,0E0,0E0,0E0,0E0,0E0,0E0,0E0,0E0,0E0,0E0],"parents":[2147483647,0,0,1,1,2,2,3,3,4,4,5,5,6,6,7,7,8,8,9,9,10,10,11,11,12,12,13,13,14,14,15,15,16,16,17,17,18,18,19,19,20,20,21,21,22,22,23,23,24,24,25,25,26,26,27,27,28,28,29,29,30,30],"right_children":[2,4,6,8,10,12,14,16,18,20,22,24,26,28,30,32,34,36,38,40,42,44,46,48,50,52,54,56,58,60,62,-1,-1,-1,-1,-1,-1,-1,-1,-1,-1,-1,-1,-1,-1,-1,-1,-1,-1,-1,-1,-1,-1,-1,-1,-1,-1,-1,-1,-1,-1,-1,-1],"split_conditions":[2.5881904E-1,5E0,-7.0710677E-1,-7.0710677E-1,-7.0710677E-1,2E1,5E-1,2.622E1,-1.8369701E-16,8.314E-1,7E0,2.566E1,6.617333E-1,1.298E1,5E0,1.1E1,6.66275E-1,1.352E1,9.4E0,3.148E1,5.3346664E-1,1.764E1,9E0,1.2E1,6.538E-1,2.824E1,6.034E-1,5E0,2.576E1,6.634479E-1,5E0,5.3775064E-3,6.622306E-4,4.519216E-3,7.7069625E-3,1.293471E-2,8.305596E-3,8.002313E-3,2.2755885E-3,-5.0975615E-3,-2.3197548E-3,-6.713488E-3,-4.3602256E-5,-1.6077872E-3,-6.7591444E-3,4.824112E-3,3.6289566E-4,-1.5369528E-4,3.4477727E-3,9.283563E-3,2.432213E-3,-3.3664335E-3,-3.717128E-4,4.944483E-3,-1.3027162E-3,-2.241411E-3,-5.383315E-3,-5.6017E-3,-3.8918299E-3,-8.406444E-3,-5.631155E-3,-3.4548938E-3,-7.3483633E-3],"split_indices":[5,1,4,5,5,0,4,8,5,10,0,8,11,8,0,0,11,8,8,8,11,8,0,2,9,8,9,1,8,11,1,0,0,0,0,0,0,0,0,0,0,0,0,0,0,0,0,0,0,0,0,0,0,0,0,0,0,0,0,0,0,0,0],"split_type":[0,0,0,0,0,0,0,0,0,0,0,0,0,0,0,0,0,0,0,0,0,0,0,0,0,0,0,0,0,0,0,0,0,0,0,0,0,0,0,0,0,0,0,0,0,0,0,0,0,0,0,0,0,0,0,0,0,0,0,0,0,0,0],"sum_hessian":[6.988E3,3.806E3,3.182E3,2.733E3,1.073E3,5.73E2,2.609E3,1.043E3,1.69E3,4.13E2,6.6E2,2.89E2,2.84E2,1.45E3,1.159E3,6.54E2,3.89E2,1.263E3,4.27E2,3.59E2,5.4E1,8.5E1,5.75E2,1.96E2,9.3E1,2.1E2,7.4E1,5.12E2,9.38E2,8.71E2,2.88E2,1.39E2,5.15E2,2.36E2,1.53E2,2.19E2,1.044E3,5.4E1,3.73E2,3.05E2,5.4E1,8E0,4.6E1,5E1,3.5E1,1.54E2,4.21E2,1.74E2,2.2E1,2E0,9.1E1,1.78E2,3.2E1,7E0,6.7E1,3.49E2,1.63E2,6.6E2,2.78E2,6.93E2,1.78E2,2.1E2,7.8E1],"tree_param":{"num_deleted":"0","num_feature":"12","num_nodes":"63","size_leaf_vector":"1"}},{"base_weights":[3.5524252E-5,3.545607E-2,-4.2328928E-2,5.324353E-2,-9.857134E-3,-5.6165843E-3,-5.038661E-2,2.8918266E-2,6.823012E-2,-3.8075775E-2,7.831782E-3,9.486759E-3,-2.0965192E-2,-4.0055297E-2,-6.3266225E-2,1.4078553E-2,5.0757658E-2,8.20776E-2,2.7175358E-2,-4.0975876E-2,1.8385372E-3,-1.2703973E-3,3.7305314E-2,5.0627617E-3,3.478129E-2,-2.4974015E-2,-6.513403E-4,-3.4767874E-2,-5.265378E-2,-7.063358E-2,-4.0817764E-2,4.8466893E-3,4.284995E-4,3.971087E-3,6.9530443E-3,6.667457E-3,9.950496E-3,7.216628E-3,2.0486384E-3,-4.459511E-3,-2.0961985E-3,-1.1447237E-3,5.467521E-3,2.1003E-3,-1.4393057E-3,1.7996089E-3,6.268629E-3,-7.6416455E-4,1.2867021E-3,8.664659E-3,3.013794E-3,-1.9671097E-3,-4.4519557E-3,4.8398944E-3,-1.1671371E-3,-1.2381709E-3,-4.04177E-3,-5.5795326E-3,-1.4700203E-3,-5.8455374E-3,-8.023052E-3,-1.1558422E-3,-4.9425648E-3],"categories":[],"categories_nodes":[],"categories_segments":[],"categories_sizes":[],"default_left":[0,0,0,0,0,0,0,0,0,0,0,0,0,0,0,0,0,0,0,0,0,0,0,0,0,0,0,0,0,0,0,0,0,0,0,0,0,0,0,0,0,0,0,0,0,0,0,0,0,0,0,0,0,0,0,0,0,0,0,0,0,0,0],"id":15,"left_children":[1,3,5,7,9,11,13,15,17,19,21,23,25,27,29,31,33,35,37,39,41,43,45,47,49,51,53,55,57,59,61,-1,-1,-1,-1,-1,-1,-1,-1,-1,-1,-1,-1,-1,-1,-1,-1,-1,-1,-1,-1,-1,-1,-1,-1,-1,-1,-1,-1,-1,-1,-1,-1],"loss_changes":[1.0488997E1,3.068993E0,9.4130135E-1,9.947138E-1,5.363929E-1,1.3326086E-1,3.4476042E-1,3.376357E-1,9.591117E-1,4.799819E-2,1.7737612E-1,3.2275766E-2,2.3192614E-2,9.4825506E-2,1.8896484E-1,2.0960885E-1,8.47528E-2,3.326664E-1,1.2732524E-1,2.7025044E-2,2.098319E-2,1.4819911E-1,7.5325415E-2,2.4687149E-2,7.7442788E-3,2.3792565E-2,2.6510589E-2,1.2913918E-1,5.009222E-2,9.722376E-2,7.221657E-2,0E0,0E0,0E0,0E0,0E0,0E0,0E0,0E0,0E0,0E0,0E0,0E0,0E0,0E0,0E0,0E0,0E0,0E0,0E0,0E0,0E0,0E0,0E0,0E0,0E0,0E0,0E0,0E0,0E0,0E0,0E0,0E0],"parents":[2147483647,0,0,1,1,2,2,3,3,4,4,5,5,6,6,7,7,8,8,9,9,10,10,11,11,12,12,13,13,14,14,15,15,16,16,17,17,18,18,19,19,20,20,21,21,22,22,23,23,24,24,25,25,26,26,27,27,28,28,29,29,30,30],"right_children":[2,4,6,8,10,12,14,16,18,20,22,24,26,28,30,32,34,36,38,40,42,44,46,48,50,52,54,56,58,60,62,-1,-1,-1,-1,-1,-1,-1,-1,-1,-1,-1,-1,-1,-1,-1,-1,-1,-1,-1,-1,-1,-1,-1,-1,-1,-1,-1,-1,-1,-1,-1,-1],"split_conditions":[2.5881904E-1,5E0,-7.0710677E-1,-7.0710677E-1,-7.0710677E-1,2E1,5E-1,2.554E1,-1.8369701E-16,8.704E-1,2.78E1,3.122E1,6.698667E-1,5E0,5E0,1.1E1,6.66275E-1,6.4675E-1,9.4E0,3.148E1,9E0,1.526E1,-2.5881904E-1,6.160333E-1,6.538E-1,5.466E-1,6.198E-1,1E0,2.836E1,1.204E1,8.18E0,4.8466893E-3,4.284995E-4,3.971087E-3,6.9530443E-3,6.667457E-3,9.950496E-3,7.216628E-3,2.0486384E-3,-4.459511E-3,-2.0961985E-3,-1.1447237E-3,5.467521E-3,2.1003E-3,-1.4393057E-3,1.7996089E-3,6.268629E-3,-7.6416455E-4,1.2867021E-3,8.664659E-3,3.013794E-3,-1.9671097E-3,-4.4519557E-3,4.8398944E-3,-1.1671371E-3,-1.2381709E-3,-4.04177E-3,-5.5795326E-3,-1.4700203E-3,-5.8455374E-3,-8.023052E-3,-1.1558422E-3,-4.9425648E-3],"split_indices":[5,1,4,5,5,0,4,8,5,10,8,8,11,1,0,0,11,11,8,8,2,8,5,11,9,10,9,0,8,8,8,0,0,0,0,0,0,0,0,0,0,0,0,0,0,0,0,0,0,0,0,0,0,0,0,0,0,0,0,0,0,0,0],"split_type":[0,0,0,0,0,0,0,0,0,0,0,0,0,0,0,0,0,0,0,0,0,0,0,0,0,0,0,0,0,0,0,0,0,0,0,0,0,0,0,0,0,0,0,0,0,0,0,0,0,0,0,0,0,0,0,0,0,0,0,0,0,0,0],"sum_hessian":[6.988E3,3.806E3,3.182E3,2.733E3,1.073E3,5.73E2,2.609E3,1.043E3,1.69E3,4.13E2,6.6E2,2.89E2,2.84E2,1.45E3,1.159E3,6.22E2,4.21E2,1.263E3,4.27E2,3.85E2,2.8E1,5.05E2,1.55E2,2.47E2,4.2E1,2.37E2,4.7E1,1.024E3,4.26E2,8.71E2,2.88E2,1.37E2,4.85E2,2.67E2,1.54E2,6.73E2,5.9E2,5.4E1,3.73E2,3.25E2,6E1,2.3E1,5E0,1.87E2,3.18E2,8.9E1,6.6E1,9.4E1,1.53E2,2E0,4E1,1.88E2,4.9E1,8E0,3.9E1,2.07E2,8.17E2,3.93E2,3.3E1,3.87E2,4.84E2,6.6E1,2.22E2],"tree_param":{"num_deleted":"0","num_feature":"12","num_nodes":"63","size_leaf_vector":"1"}},{"base_weights":[3.565688E-5,-3.4887787E-2,3.4919143E-2,-4.8618894E-2,-1.3419938E-2,2.2100236E-2,6.8870194E-2,-6.9737546E-2,-4.3559473E-2,-2.4244629E-2,9.753355E-3,2.7933534E-2,-2.3431558E-2,1.1048651E-1,5.732306E-2,-7.636441E-2,-3.4040466E-2,-3.5877768E-2,-5.0350145E-2,-2.9112104E-2,-3.6603492E-3,-1.6829915E-2,2.7035814E-2,6.571038E-2,2.2004442E-2,-5.4515928E-2,-2.0538865E-2,1.0052463E-1,1.4836816E-1,6.6541925E-2,2.5611341E-2,-8.285829E-3,-5.2686273E-3,-7.428519E-3,-1.7401086E-3,-2.782831E-3,-5.199293E-3,-5.63732E-3,-3.5454798E-3,-1.4128144E-3,-3.4296263E-3,-2.0370155E-3,2.743025E-3,-4.7891433E-3,-6.1048253E-4,2.4270103E-3,2.0073956E-2,7.5346576E-3,3.8585768E-3,1.3918559E-3,5.296914E-3,-5.152297E-4,-6.4131035E-3,-4.2791944E-3,-1.6293674E-3,1.5329214E-2,9.146134E-3,5.677462E-4,1.517935E-2,4.519313E-3,7.91104E-3,8.459977E-4,5.345111E-3],"categories":[],"categories_nodes":[],"categories_segments":[],"categories_sizes":[],"default_left":[0,0,0,0,0,0,0,0,0,0,0,0,0,0,0,0,0,0,0,0,0,0,0,0,0,0,0,0,0,0,0,0,0,0,0,0,0,0,0,0,0,0,0,0,0,0,0,0,0,0,0,0,0,0,0,0,0,0,0,0,0,0,0],"id":16,"left_children":[1,3,5,7,9,11,13,15,17,19,21,23,25,27,29,31,33,35,37,39,41,43,45,47,49,51,53,55,57,59,61,-1,-1,-1,-1,-1,-1,-1,-1,-1,-1,-1,-1,-1,-1,-1,-1,-1,-1,-1,-1,-1,-1,-1,-1,-1,-1,-1,-1,-1,-1,-1,-1],"loss_changes":[8.515578E0,1.0290055E0,1.5204268E0,2.2454834E-1,3.4238732E-1,6.7527986E-1,4.540329E-1,9.4390035E-2,8.7967634E-2,9.307331E-2,2.0030457E-1,5.0296247E-1,2.4866477E-2,6.320119E-2,2.1813989E-1,4.868269E-2,4.290408E-2,1.0375476E-1,7.973194E-2,5.793023E-2,9.3552455E-2,5.7007298E-2,1.21957436E-1,7.68131E-2,4.8699707E-1,1.1060864E-2,2.4431415E-2,6.584704E-2,1.9177437E-2,1.5258813E-1,8.119858E-2,0E0,0E0,0E0,0E0,0E0,0E0,0E0,0E0,0E0,0E0,0E0,0E0,0E0,0E0,0E0,0E0,0E0,0E0,0E0,0E0,0E0,0E0,0E0,0E0,0E0,0E0,0E0,0E0,0E0,0E0,0E0,0E0],"parents":[2147483647,0,0,1,1,2,2,3,3,4,4,5,5,6,6,7,7,8,8,9,9,10,10,11,11,12,12,13,13,14,14,15,15,16,16,17,17,18,18,19,19,20,20,21,21,22,22,23,23,24,24,25,25,26,26,27,27,28,28,29,29,30,30],"right_children":[2,4,6,8,10,12,14,16,18,20,22,24,26,28,30,32,34,36,38,40,42,44,46,48,50,52,54,56,58,60,62,-1,-1,-1,-1,-1,-1,-1,-1,-1,-1,-1,-1,-1,-1,-1,-1,-1,-1,-1,-1,-1,-1,-1,-1,-1,-1,-1,-1,-1,-1,-1,-1],"split_conditions":[5.774E-1,4.486E-1,8.968E-1,2.54E-1,8.660254E-1,5E-1,9E0,6.634479E-1,1.586E1,2.824E1,3.688E-1,9E0,3.69E-1,6.6903335E-1,1.8E1,3.774E-1,1.82E-1,5E0,4.5E-1,3E0,6E0,-7.818315E-1,7.0545E-1,5E0,3.072E1,4.81425E-1,4.9305E-1,9.52E0,8E0,-7.0710677E-1,6.66275E-1,-8.285829E-3,-5.2686273E-3,-7.428519E-3,-1.7401086E-3,-2.782831E-3,-5.199293E-3,-5.63732E-3,-3.5454798E-3,-1.4128144E-3,-3.4296263E-3,-2.0370155E-3,2.743025E-3,-4.7891433E-3,-6.1048253E-4,2.4270103E-3,2.0073956E-2,7.5346576E-3,3.8585768E-3,1.3918559E-3,5.296914E-3,-5.152297E-4,-6.4131035E-3,-4.2791944E-3,-1.6293674E-3,1.5329214E-2,9.146134E-3,5.677462E-4,1.517935E-2,4.519313E-3,7.91104E-3,8.459977E-4,5.345111E-3],"split_indices":[9,10,9,10,4,5,0,11,8,8,9,0,10,11,0,9,10,1,9,1,1,6,11,1,8,11,11,8,0,5,11,0,0,0,0,0,0,0,0,0,0,0,0,0,0,0,0,0,0,0,0,0,0,0,0,0,0,0,0,0,0,0,0],"split_type":[0,0,0,0,0,0,0,0,0,0,0,0,0,0,0,0,0,0,0,0,0,0,0,0,0,0,0,0,0,0,0,0,0,0,0,0,0,0,0,0,0,0,0,0,0,0,0,0,0,0,0,0,0,0,0,0,0,0,0,0,0,0,0],"sum_hessian":[6.988E3,3.492E3,3.496E3,2.129E3,1.363E3,2.539E3,9.57E2,4.09E2,1.72E3,9.29E2,4.34E2,2.251E3,2.88E2,2.06E2,7.51E2,3.44E2,6.5E1,8.1E2,9.1E2,7.51E2,1.78E2,1.71E2,2.63E2,3.04E2,1.947E3,2.3E1,2.65E2,1.66E2,4E1,5.81E2,1.7E2,2.68E2,7.6E1,1.8E1,4.7E1,5.42E2,2.68E2,6.46E2,2.64E2,1.94E2,5.57E2,1.16E2,6.2E1,4.3E1,1.28E2,2.6E2,3E0,2.23E2,8.1E1,1.545E3,4.02E2,4E0,1.9E1,4.1E1,2.24E2,2.2E1,1.44E2,1E0,3.9E1,2.17E2,3.64E2,1.06E2,6.4E1],"tree_param":{"num_deleted":"0","num_feature":"12","num_nodes":"63","size_leaf_vector":"1"}},{"base_weights":[3.7416678E-5,2.899403E-2,-3.4595903E-2,4.3764647E-2,-8.633406E-3,-2.1795837E-2,-4.9976334E-2,2.3405569E-2,5.630818E-2,-3.2653317E-2,6.4238966E-3,6.5849414E-3,-2.7456962E-2,-4.3837726E-2,-6.531328E-2,1.0558184E-2,4.1653566E-2,6.772411E-2,2.2462292E-2,-3.635423E-2,-7.835464E-3,-3.2675423E-2,1.22504905E-2,-1.4997961E-2,1.0198985E-2,-2.2744905E-2,-4.6978842E-2,-5.3488765E-2,-2.9231966E-2,-6.9993E-2,-1.7536286E-2,4.014328E-3,1.9768393E-4,3.479043E-3,6.431793E-3,1.0594307E-2,6.216847E-3,1.8834922E-2,2.0848152E-3,-3.1712048E-3,-5.903661E-3,-5.8293045E-3,3.303912E-4,-2.4376297E-3,-8.704434E-3,3.9739357E-3,2.1248391E-4,-3.7664012E-3,-1.0107458E-4,5.6675435E-3,8.818187E-4,-2.7187432E-3,-8.3926757E-4,-4.7836215E-3,4.841629E-3,-4.172433E-3,-7.6370775E-3,-1.250136E-3,-4.4072E-3,-8.790375E-3,-6.229422E-3,-3.743352E-4,-5.105137E-3],"categories":[],"categories_nodes":[],"categories_segments":[],"categories_sizes":[],"default_left":[0,0,0,0,0,0,0,0,0,0,0,0,0,0,0,0,0,0,0,0,0,0,0,0,0,0,0,0,0,0,0,0,0,0,0,0,0,0,0,0,0,0,0,0,0,0,0,0,0,0,0,0,0,0,0,0,0,0,0,0,0,0,0],"id":17,"left_children":[1,3,5,7,9,11,13,15,17,19,21,23,25,27,29,31,33,35,37,39,41,43,45,47,49,51,53,55,57,59,61,-1,-1,-1,-1,-1,-1,-1,-1,-1,-1,-1,-1,-1,-1,-1,-1,-1,-1,-1,-1,-1,-1,-1,-1,-1,-1,-1,-1,-1,-1,-1,-1],"loss_changes":[7.010017E0,2.1162345E0,6.2554955E-1,6.968765E-1,3.886488E-1,2.7958095E-1,1.3318038E-1,2.4431449E-1,6.518512E-1,3.77405E-2,1.5098657E-1,2.2773415E-2,1.323142E-1,1.4433062E-1,9.066486E-2,1.5580294E-1,6.480384E-2,2.618003E-1,1.1067663E-1,3.6034316E-2,3.1106222E-2,3.6682613E-2,1.6024093E-1,1.3277399E-2,1.5479712E-2,7.437122E-2,2.5298774E-2,1.6425204E-1,1.0223812E-1,4.609549E-2,1.7375208E-2,0E0,0E0,0E0,0E0,0E0,0E0,0E0,0E0,0E0,0E0,0E0,0E0,0E0,0E0,0E0,0E0,0E0,0E0,0E0,0E0,0E0,0E0,0E0,0E0,0E0,0E0,0E0,0E0,0E0,0E0,0E0,0E0],"parents":[2147483647,0,0,1,1,2,2,3,3,4,4,5,5,6,6,7,7,8,8,9,9,10,10,11,11,12,12,13,13,14,14,15,15,16,16,17,17,18,18,19,19,20,20,21,21,22,22,23,23,24,24,25,25,26,26,27,27,28,28,29,29,30,30],"right_children":[2,4,6,8,10,12,14,16,18,20,22,24,26,28,30,32,34,36,38,40,42,44,46,48,50,52,54,56,58,60,62,-1,-1,-1,-1,-1,-1,-1,-1,-1,-1,-1,-1,-1,-1,-1,-1,-1,-1,-1,-1,-1,-1,-1,-1,-1,-1,-1,-1,-1,-1,-1,-1],"split_conditions":[2.5881904E-1,5E0,1.2246469E-16,-7.0710677E-1,-7.0710677E-1,-8.660254E-1,5E0,2.524E1,-1.8369701E-16,8.314E-1,7E0,4.7891667E-1,2.3E1,4E0,4.5E-1,1.1E1,6.7536664E-1,1.168E1,5.64E0,6.082E-1,-9.659258E-1,4.022E-1,9E0,5E0,6.198E-1,6.644083E-1,7.102583E-1,3E0,1.334E1,4.8324168E-1,6.3483334E-1,4.014328E-3,1.9768393E-4,3.479043E-3,6.431793E-3,1.0594307E-2,6.216847E-3,1.8834922E-2,2.0848152E-3,-3.1712048E-3,-5.903661E-3,-5.8293045E-3,3.303912E-4,-2.4376297E-3,-8.704434E-3,3.9739357E-3,2.1248391E-4,-3.7664012E-3,-1.0107458E-4,5.6675435E-3,8.818187E-4,-2.7187432E-3,-8.3926757E-4,-4.7836215E-3,4.841629E-3,-4.172433E-3,-7.6370775E-3,-1.250136E-3,-4.4072E-3,-8.790375E-3,-6.229422E-3,-3.743352E-4,-5.105137E-3],"split_indices":[5,1,4,5,5,4,1,8,5,10,0,11,0,0,9,0,11,8,8,9,5,9,0,2,9,11,11,0,8,11,11,0,0,0,0,0,0,0,0,0,0,0,0,0,0,0,0,0,0,0,0,0,0,0,0,0,0,0,0,0,0,0,0],"split_type":[0,0,0,0,0,0,0,0,0,0,0,0,0,0,0,0,0,0,0,0,0,0,0,0,0,0,0,0,0,0,0,0,0,0,0,0,0,0,0,0,0,0,0,0,0,0,0,0,0,0,0,0,0,0,0,0,0,0,0,0,0,0,0],"sum_hessian":[6.988E3,3.806E3,3.182E3,2.733E3,1.073E3,1.738E3,1.444E3,1.043E3,1.69E3,4.13E2,6.6E2,2.89E2,1.449E3,1.034E3,4.1E2,6.13E2,4.3E2,1.263E3,4.27E2,3.59E2,5.4E1,8.5E1,5.75E2,4.1E1,2.48E2,1.169E3,2.8E2,6.21E2,4.13E2,3.73E2,3.7E1,1.37E2,4.76E2,3.32E2,9.8E1,1.58E2,1.105E3,3E0,4.24E2,3E2,5.9E1,9E0,4.5E1,7.5E1,1E1,1.54E2,4.21E2,1.5E1,2.6E1,6E0,2.42E2,8.92E2,2.77E2,2.78E2,2E0,4.12E2,2.09E2,1.95E2,2.18E2,1.09E2,2.64E2,2.7E1,1E1],"tree_param":{"num_deleted":"0","num_feature":"12","num_nodes":"63","size_leaf_vector":"1"}},{"base_weights":[3.246994E-5,2.6102595E-2,-3.1148491E-2,3.9407156E-2,-7.7901157E-3,-4.128259E-3,-3.707894E-2,3.168695E-2,6.704828E-2,-2.9423187E-2,5.770976E-3,5.9357197E-3,-1.4354315E-2,-2.722457E-2,-4.5004968E-2,1.8948741E-2,4.6619557E-2,9.773189E-2,5.6230392E-2,-1.2329732E-2,-3.3801954E-2,-1.8633899E-3,3.0496735E-2,1.0399589E-4,1.809438E-2,-7.4498765E-2,-1.3014239E-2,-2.241869E-2,-4.228074E-2,-3.464714E-2,-5.2573208E-2,9.134056E-4,4.467212E-3,6.225054E-3,1.8253E-3,8.832033E-3,1.369296E-2,4.411719E-3,7.73799E-3,-2.1908337E-3,4.314306E-3,-7.887987E-3,-3.0472355E-3,1.7004049E-3,-1.2976917E-3,2.0606886E-3,6.817594E-3,-3.6058406E-4,2.832649E-3,3.718285E-3,1.1387088E-3,9.040803E-4,-9.301484E-3,-1.1448812E-3,-5.887893E-3,-6.185823E-4,-2.7642741E-3,-1.7054623E-3,-4.545416E-3,-2.4974055E-3,-4.75108E-3,-5.4318444E-3,-1.5649193E-3],"categories":[],"categories_nodes":[],"categories_segments":[],"categories_sizes":[],"default_left":[0,0,0,0,0,0,0,0,0,0,0,0,0,0,0,0,0,0,0,0,0,0,0,0,0,0,0,0,0,0,0,0,0,0,0,0,0,0,0,0,0,0,0,0,0,0,0,0,0,0,0,0,0,0,0,0,0,0,0,0,0,0,0],"id":18,"left_children":[1,3,5,7,9,11,13,15,17,19,21,23,25,27,29,31,33,35,37,39,41,43,45,47,49,51,53,55,57,59,61,-1,-1,-1,-1,-1,-1,-1,-1,-1,-1,-1,-1,-1,-1,-1,-1,-1,-1,-1,-1,-1,-1,-1,-1,-1,-1,-1,-1,-1,-1,-1,-1],"loss_changes":[5.682112E0,1.7169883E0,5.098975E-1,5.812979E-1,3.152471E-1,5.9158303E-2,2.0263171E-1,4.0598607E-1,1.9233608E-1,3.0570418E-2,1.2483083E-1,2.0560842E-2,2.2000913E-2,8.342177E-2,1.1145258E-1,2.9144365E-1,4.3516636E-1,4.4718623E-2,1.1007762E-1,4.664145E-2,4.6976417E-2,1.0632066E-1,5.6727216E-2,2.0728204E-2,1.16115995E-2,1.01218745E-2,1.9429311E-2,7.496297E-2,2.1719694E-2,7.508987E-2,5.2829504E-2,0E0,0E0,0E0,0E0,0E0,0E0,0E0,0E0,0E0,0E0,0E0,0E0,0E0,0E0,0E0,0E0,0E0,0E0,0E0,0E0,0E0,0E0,0E0,0E0,0E0,0E0,0E0,0E0,0E0,0E0,0E0,0E0],"parents":[2147483647,0,0,1,1,2,2,3,3,4,4,5,5,6,6,7,7,8,8,9,9,10,10,11,11,12,12,13,13,14,14,15,15,16,16,17,17,18,18,19,19,20,20,21,21,22,22,23,23,24,24,25,25,26,26,27,27,28,28,29,29,30,30],"right_children":[2,4,6,8,10,12,14,16,18,20,22,24,26,28,30,32,34,36,38,40,42,44,46,48,50,52,54,56,58,60,62,-1,-1,-1,-1,-1,-1,-1,-1,-1,-1,-1,-1,-1,-1,-1,-1,-1,-1,-1,-1,-1,-1,-1,-1,-1,-1,-1,-1,-1,-1,-1,-1],"split_conditions":[2.5881904E-1,5E0,-7.0710677E-1,9.602E-1,-7.0710677E-1,2E1,1.2246469E-16,-5E-1,9E0,4.106E-1,2.78E1,2.566E1,1.01E1,2.3E1,1.194E1,2.954E1,-1.8369701E-16,2.748E1,2.888E1,3.176E1,3.772E-1,1.526E1,1.8E1,1.2E1,2.94E1,-7.818315E-1,7.778E-1,1.138E1,8.64E0,4E0,6.9009167E-1,9.134056E-4,4.467212E-3,6.225054E-3,1.8253E-3,8.832033E-3,1.369296E-2,4.411719E-3,7.73799E-3,-2.1908337E-3,4.314306E-3,-7.887987E-3,-3.0472355E-3,1.7004049E-3,-1.2976917E-3,2.0606886E-3,6.817594E-3,-3.6058406E-4,2.832649E-3,3.718285E-3,1.1387088E-3,9.040803E-4,-9.301484E-3,-1.1448812E-3,-5.887893E-3,-6.185823E-4,-2.7642741E-3,-1.7054623E-3,-4.545416E-3,-2.4974055E-3,-4.75108E-3,-5.4318444E-3,-1.5649193E-3],"split_indices":[5,1,4,9,5,0,4,5,0,9,8,8,8,0,8,8,5,8,8,8,10,8,0,2,8,6,9,8,8,1,11,0,0,0,0,0,0,0,0,0,0,0,0,0,0,0,0,0,0,0,0,0,0,0,0,0,0,0,0,0,0,0,0],"split_type":[0,0,0,0,0,0,0,0,0,0,0,0,0,0,0,0,0,0,0,0,0,0,0,0,0,0,0,0,0,0,0,0,0,0,0,0,0,0,0,0,0,0,0,0,0,0,0,0,0,0,0,0,0,0,0,0,0,0,0,0,0,0,0],"sum_hessian":[6.988E3,3.806E3,3.182E3,2.733E3,1.073E3,5.73E2,2.609E3,2.138E3,5.95E2,4.13E2,6.6E2,2.89E2,2.84E2,1.165E3,1.444E3,1.155E3,9.83E2,1.53E2,4.42E2,8.5E1,3.28E2,5.05E2,1.55E2,1.96E2,9.3E1,5E0,2.79E2,8.85E2,2.8E2,6.12E2,8.32E2,8.37E2,3.18E2,6.33E2,3.5E2,1.26E2,2.7E1,2.83E2,1.59E2,7.3E1,1.2E1,2.1E1,3.07E2,1.87E2,3.18E2,1.24E2,3.1E1,1.74E2,2.2E1,2.3E1,7E1,1E0,4E0,2.71E2,8E0,2.16E2,6.69E2,3.2E1,2.48E2,3.51E2,2.61E2,7.94E2,3.8E1],"tree_param":{"num_deleted":"0","num_feature":"12","num_nodes":"63","size_leaf_vector":"1"}},{"base_weights":[3.160504E-5,2.3505108E-2,-2.8043687E-2,3.5484053E-2,-7.0106653E-3,-3.7295339E-3,-3.3380195E-2,2.8524553E-2,6.0401645E-2,-2.650216E-2,5.207927E-3,5.367442E-3,-1.297302E-2,-5.1622484E-2,-2.9687831E-2,1.7058546E-2,4.1965794E-2,8.8104986E-2,5.063479E-2,-2.9750606E-2,-4.7577387E-3,-2.9862633E-2,1.0435115E-2,2.1539046E-3,2.5994211E-2,-6.8448454E-2,-1.1737929E-2,-7.793688E-2,-4.543368E-2,-2.5090333E-2,-4.1163355E-2,9.3685434E-4,4.433025E-3,5.603531E-3,1.6432928E-3,7.955787E-3,1.2372567E-2,4.451671E-3,8.751338E-3,-9.2028745E-4,-3.3666387E-3,-5.4623447E-3,4.892243E-4,-1.3695933E-3,-5.5412306E-3,3.5386686E-3,1.2457107E-4,-2.0176949E-5,2.5616998E-3,5.5848113E-3,7.042103E-4,8.588761E-4,-8.557365E-3,-1.7067401E-3,-1.0875403E-5,-8.9022955E-3,-6.0506347E-3,-5.0506094E-3,-1.999205E-3,-1.3794607E-3,-3.3568863E-3,-4.691322E-3,-2.283436E-3],"categories":[],"categories_nodes":[],"categories_segments":[],"categories_sizes":[],"default_left":[0,0,0,0,0,0,0,0,0,0,0,0,0,0,0,0,0,0,0,0,0,0,0,0,0,0,0,0,0,0,0,0,0,0,0,0,0,0,0,0,0,0,0,0,0,0,0,0,0,0,0,0,0,0,0,0,0,0,0,0,0,0,0],"id":19,"left_children":[1,3,5,7,9,11,13,15,17,19,21,23,25,27,29,31,33,35,37,39,41,43,45,47,49,51,53,55,57,59,61,-1,-1,-1,-1,-1,-1,-1,-1,-1,-1,-1,-1,-1,-1,-1,-1,-1,-1,-1,-1,-1,-1,-1,-1,-1,-1,-1,-1,-1,-1,-1,-1],"loss_changes":[4.606588E0,1.3918853E0,4.1287804E-1,4.723909E-1,2.559204E-1,4.833601E-2,1.7426944E-1,3.289411E-1,1.5680122E-1,2.910158E-2,1.2148641E-1,1.9166633E-2,1.8723968E-2,6.7789316E-2,1.136117E-1,2.420204E-1,3.525666E-1,3.7042618E-2,9.605658E-2,2.8655887E-2,2.6733406E-2,3.476371E-2,1.32027E-1,1.3933562E-2,2.167269E-2,8.650634E-3,1.7351806E-2,1.0458916E-2,4.506135E-2,1.4836526E-1,6.427014E-2,0E0,0E0,0E0,0E0,0E0,0E0,0E0,0E0,0E0,0E0,0E0,0E0,0E0,0E0,0E0,0E0,0E0,0E0,0E0,0E0,0E0,0E0,0E0,0E0,0E0,0E0,0E0,0E0,0E0,0E0,0E0,0E0],"parents":[2147483647,0,0,1,1,2,2,3,3,4,4,5,5,6,6,7,7,8,8,9,9,10,10,11,11,12,12,13,13,14,14,15,15,16,16,17,17,18,18,19,19,20,20,21,21,22,22,23,23,24,24,25,25,26,26,27,27,28,28,29,29,30,30],"right_children":[2,4,6,8,10,12,14,16,18,20,22,24,26,28,30,32,34,36,38,40,42,44,46,48,50,52,54,56,58,60,62,-1,-1,-1,-1,-1,-1,-1,-1,-1,-1,-1,-1,-1,-1,-1,-1,-1,-1,-1,-1,-1,-1,-1,-1,-1,-1,-1,-1,-1,-1,-1,-1],"split_conditions":[2.5881904E-1,5E0,-7.0710677E-1,9.602E-1,-7.0710677E-1,2E1,2.584E-1,-5E-1,9E0,8.314E-1,7E0,6.7490834E-1,1.01E1,4.8324168E-1,5E0,3.11E1,-1.8369701E-16,2.748E1,3.278E1,3.964E-1,5.3346664E-1,6.1053336E-1,9E0,1.2E1,4.3388373E-1,-7.818315E-1,6.54475E-1,2.168E-1,6.6849166E-1,1.362E1,4.5E-1,9.3685434E-4,4.433025E-3,5.603531E-3,1.6432928E-3,7.955787E-3,1.2372567E-2,4.451671E-3,8.751338E-3,-9.2028745E-4,-3.3666387E-3,-5.4623447E-3,4.892243E-4,-1.3695933E-3,-5.5412306E-3,3.5386686E-3,1.2457107E-4,-2.0176949E-5,2.5616998E-3,5.5848113E-3,7.042103E-4,8.588761E-4,-8.557365E-3,-1.7067401E-3,-1.0875403E-5,-8.9022955E-3,-6.0506347E-3,-5.0506094E-3,-1.999205E-3,-1.3794607E-3,-3.3568863E-3,-4.691322E-3,-2.283436E-3],"split_indices":[5,1,4,9,5,0,10,5,0,10,0,11,8,11,1,8,5,8,8,9,11,11,0,2,6,6,11,10,11,8,9,0,0,0,0,0,0,0,0,0,0,0,0,0,0,0,0,0,0,0,0,0,0,0,0,0,0,0,0,0,0,0,0],"split_type":[0,0,0,0,0,0,0,0,0,0,0,0,0,0,0,0,0,0,0,0,0,0,0,0,0,0,0,0,0,0,0,0,0,0,0,0,0,0,0,0,0,0,0,0,0,0,0,0,0,0,0,0,0,0,0,0,0,0,0,0,0,0,0],"sum_hessian":[6.988E3,3.806E3,3.182E3,2.733E3,1.073E3,5.73E2,2.609E3,2.138E3,5.95E2,4.13E2,6.6E2,2.89E2,2.84E2,4.37E2,2.172E3,1.155E3,9.83E2,1.53E2,4.42E2,3.59E2,5.4E1,8.5E1,5.75E2,2.51E2,3.8E1,5E0,2.79E2,8.1E1,3.56E2,1.553E3,6.19E2,9.02E2,2.53E2,6.33E2,3.5E2,1.26E2,2.7E1,3.81E2,6.1E1,5.8E1,3.01E2,8E0,4.6E1,5.3E1,3.2E1,1.54E2,4.21E2,2.29E2,2.2E1,1.4E1,2.4E1,1E0,4E0,1.91E2,8.8E1,4.7E1,3.4E1,2.96E2,6E1,6.67E2,8.86E2,4.7E2,1.49E2],"tree_param":{"num_deleted":"0","num_feature":"12","num_nodes":"63","size_leaf_vector":"1"}},{"base_weights":[2.8344135E-5,2.1163424E-2,-2.5250098E-2,3.195251E-2,-6.3212435E-3,-1.5500831E-2,-3.6965474E-2,6.5655775E-2,2.7346522E-2,-1.9065771E-2,8.850091E-3,4.861169E-3,-1.956254E-2,-4.0814493E-2,-2.1428185E-2,2.136306E-2,7.138598E-2,1.5976777E-2,4.7891594E-2,-2.257943E-2,-5.0967804E-4,-2.6956735E-2,1.641299E-2,-1.3856235E-2,7.998799E-3,-1.5847264E-2,-3.4962226E-2,-3.1200726E-2,-5.042417E-2,-1.1353244E-2,-3.552245E-2,3.641304E-3,-5.26387E-3,2.549232E-2,6.9226264E-3,1.0646846E-3,3.7627488E-3,2.2351944E-3,5.7058497E-3,-2.5952768E-3,4.6338086E-4,-2.857738E-3,1.0073943E-3,1.5647432E-3,-3.6178005E-3,1.3431576E-4,3.4587772E-3,-3.4384818E-3,9.923142E-6,-1.0767759E-4,1.3995857E-3,-1.9676795E-3,-3.4889238E-4,-3.0755592E-3,-5.4251696E-3,-2.3562114E-3,-3.7103437E-3,-6.443729E-3,-3.5840769E-3,6.9508905E-4,-2.694752E-3,1.9693144E-3,-4.183986E-3],"categories":[],"categories_nodes":[],"categories_segments":[],"categories_sizes":[],"default_left":[0,0,0,0,0,0,0,0,0,0,0,0,0,0,0,0,0,0,0,0,0,0,0,0,0,0,0,0,0,0,0,0,0,0,0,0,0,0,0,0,0,0,0,0,0,0,0,0,0,0,0,0,0,0,0,0,0,0,0,0,0,0,0],"id":20,"left_children":[1,3,5,7,9,11,13,15,17,19,21,23,25,27,29,31,33,35,37,39,41,43,45,47,49,51,53,55,57,59,61,-1,-1,-1,-1,-1,-1,-1,-1,-1,-1,-1,-1,-1,-1,-1,-1,-1,-1,-1,-1,-1,-1,-1,-1,-1,-1,-1,-1,-1,-1,-1,-1],"loss_changes":[3.7344909E0,1.129109E0,3.629775E-1,4.2262244E-1,2.0782822E-1,1.439183E-1,8.554113E-2,8.172333E-2,5.614914E-1,3.806515E-2,1.3340692E-1,1.7142035E-2,8.240634E-2,1.0531652E-1,4.0634394E-2,4.5352004E-2,9.730518E-2,1.785798E-1,1.993649E-1,4.519379E-2,2.821133E-2,3.435243E-2,1.11153245E-1,1.2035821E-2,1.356733E-2,5.5303544E-2,2.1132857E-2,2.5322199E-2,1.1560571E-1,4.871206E-2,4.2682305E-2,0E0,0E0,0E0,0E0,0E0,0E0,0E0,0E0,0E0,0E0,0E0,0E0,0E0,0E0,0E0,0E0,0E0,0E0,0E0,0E0,0E0,0E0,0E0,0E0,0E0,0E0,0E0,0E0,0E0,0E0,0E0,0E0],"parents":[2147483647,0,0,1,1,2,2,3,3,4,4,5,5,6,6,7,7,8,8,9,9,10,10,11,11,12,12,13,13,14,14,15,15,16,16,17,17,18,18,19,19,20,20,21,21,22,22,23,23,24,24,25,25,26,26,27,27,28,28,29,29,30,30],"right_children":[2,4,6,8,10,12,14,16,18,20,22,24,26,28,30,32,34,36,38,40,42,44,46,48,50,52,54,56,58,60,62,-1,-1,-1,-1,-1,-1,-1,-1,-1,-1,-1,-1,-1,-1,-1,-1,-1,-1,-1,-1,-1,-1,-1,-1,-1,-1,-1,-1,-1,-1,-1,-1],"split_conditions":[2.5881904E-1,5E0,1.2246469E-16,1.272E1,-5E-1,-8.660254E-1,5E0,4.654E-1,2.654E1,3.162E1,7E0,4.7891667E-1,2.3E1,3E0,4E0,9.749279E-1,5.64E0,9.034E-1,-8.660254E-1,8.704E-1,1.3E1,7.84E0,4.9790832E-1,5.928E-1,7.778E-1,6.644083E-1,4.288E-1,1.236E1,4E0,1.328E1,5.64E0,3.641304E-3,-5.26387E-3,2.549232E-2,6.9226264E-3,1.0646846E-3,3.7627488E-3,2.2351944E-3,5.7058497E-3,-2.5952768E-3,4.6338086E-4,-2.857738E-3,1.0073943E-3,1.5647432E-3,-3.6178005E-3,1.3431576E-4,3.4587772E-3,-3.4384818E-3,9.923142E-6,-1.0767759E-4,1.3995857E-3,-1.9676795E-3,-3.4889238E-4,-3.0755592E-3,-5.4251696E-3,-2.3562114E-3,-3.7103437E-3,-6.443729E-3,-3.5840769E-3,6.9508905E-4,-2.694752E-3,1.9693144E-3,-4.183986E-3],"split_indices":[5,1,4,8,5,4,0,9,8,8,0,11,0,0,1,6,8,10,5,10,0,8,11,10,9,11,10,8,0,8,8,0,0,0,0,0,0,0,0,0,0,0,0,0,0,0,0,0,0,0,0,0,0,0,0,0,0,0,0,0,0,0,0],"split_type":[0,0,0,0,0,0,0,0,0,0,0,0,0,0,0,0,0,0,0,0,0,0,0,0,0,0,0,0,0,0,0,0,0,0,0,0,0,0,0,0,0,0,0,0,0,0,0,0,0,0,0,0,0,0,0,0,0,0,0,0,0,0,0],"sum_hessian":[6.988E3,3.806E3,3.182E3,2.733E3,1.073E3,1.738E3,1.444E3,3.27E2,2.406E3,5.83E2,4.9E2,2.89E2,1.449E3,1.156E3,2.88E2,3.8E1,2.89E2,1.55E3,8.56E2,4.9E2,9.3E1,8.5E1,4.05E2,4.1E1,2.48E2,1.169E3,2.8E2,5.8E2,5.76E2,1.69E2,1.19E2,3.2E1,6E0,2E0,2.87E2,1.245E3,3.05E2,2.27E2,6.29E2,4.36E2,5.4E1,2.5E1,6.8E1,1.5E1,7E1,2.22E2,1.83E2,1.6E1,2.5E1,9.9E1,1.49E2,8.92E2,2.77E2,2.32E2,4.8E1,2.55E2,3.25E2,2.92E2,2.84E2,7.8E1,9.1E1,1.2E1,1.07E2],"tree_param":{"num_deleted":"0","num_feature":"12","num_nodes":"63","size_leaf_vector":"1"}},{"base_weights":[2.664315E-5,1.9057902E-2,-2.273554E-2,2.8773218E-2,-5.6913844E-3,-1.39582E-2,-3.3282984E-2,4.297593E-2,1.9726416E-2,-2.1728348E-2,4.3615564E-3,-5.5851736E-3,-2.2315182E-2,-5.1930055E-2,-3.021087E-2,1.5107421E-2,4.9298085E-2,1.180912E-2,4.7749087E-2,-8.992699E-2,-2.084366E-2,-2.2392385E-3,2.5743868E-2,4.367701E-3,-1.0543433E-2,-2.6617644E-2,-8.317837E-3,-7.535977E-2,-4.4388026E-2,-2.1808213E-2,-3.686991E-2,1.0174306E-3,1.3099715E-2,7.050744E-3,4.1425726E-3,1.0916673E-3,1.757348E-2,3.5015233E-3,6.70914E-3,-1.6914228E-3,-1.32964095E-2,-2.2735775E-3,4.7988017E-4,1.4297939E-3,-1.1978267E-3,1.0546149E-3,4.577448E-3,1.2960105E-4,2.198192E-3,-3.0494444E-3,-6.6788046E-4,-1.8588155E-4,-2.7990185E-3,7.003898E-4,-1.6960353E-3,-8.197374E-3,-4.566067E-3,-3.8704753E-3,-7.262019E-3,-3.6260113E-3,-1.533659E-3,-3.5592567E-3,-8.861305E-3],"categories":[],"categories_nodes":[],"categories_segments":[],"categories_sizes":[],"default_left":[0,0,0,0,0,0,0,0,0,0,0,0,0,0,0,0,0,0,0,0,0,0,0,0,0,0,0,0,0,0,0,0,0,0,0,0,0,0,0,0,0,0,0,0,0,0,0,0,0,0,0,0,0,0,0,0,0,0,0,0,0,0,0],"id":21,"left_children":[1,3,5,7,9,11,13,15,17,19,21,23,25,27,29,31,33,35,37,39,41,43,45,47,49,51,53,55,57,59,61,-1,-1,-1,-1,-1,-1,-1,-1,-1,-1,-1,-1,-1,-1,-1,-1,-1,-1,-1,-1,-1,-1,-1,-1,-1,-1,-1,-1,-1,-1,-1,-1],"loss_changes":[3.0280187E0,9.1554606E-1,2.9421282E-1,3.504417E-1,1.7324358E-1,1.21558845E-1,8.120918E-2,1.8654406E-1,3.7039232E-1,2.3104027E-2,9.335136E-2,4.2979613E-2,5.217263E-2,3.2526553E-2,6.874633E-2,1.11863315E-1,1.4167333E-1,1.8899652E-1,8.8289976E-2,1.3462301E-2,2.0001695E-2,8.166562E-2,4.7006704E-2,1.5662085E-2,4.459332E-2,2.2546321E-2,2.7396966E-2,5.6855977E-3,2.2219658E-2,5.107096E-2,4.258281E-2,0E0,0E0,0E0,0E0,0E0,0E0,0E0,0E0,0E0,0E0,0E0,0E0,0E0,0E0,0E0,0E0,0E0,0E0,0E0,0E0,0E0,0E0,0E0,0E0,0E0,0E0,0E0,0E0,0E0,0E0,0E0,0E0],"parents":[2147483647,0,0,1,1,2,2,3,3,4,4,5,5,6,6,7,7,8,8,9,9,10,10,11,11,12,12,13,13,14,14,15,15,16,16,17,17,18,18,19,19,20,20,21,21,22,22,23,23,24,24,25,25,26,26,27,27,28,28,29,29,30,30],"right_children":[2,4,6,8,10,12,14,16,18,20,22,24,26,28,30,32,34,36,38,40,42,44,46,48,50,52,54,56,58,60,62,-1,-1,-1,-1,-1,-1,-1,-1,-1,-1,-1,-1,-1,-1,-1,-1,-1,-1,-1,-1,-1,-1,-1,-1,-1,-1,-1,-1,-1,-1,-1,-1],"split_conditions":[2.5881904E-1,5E0,1.2246469E-16,1.1E1,-7.0710677E-1,2.1E1,4.8324168E-1,5.384E-1,3.176E1,4.43025E-1,2.78E1,-8.660254E-1,6.644083E-1,2.168E-1,1.226E1,6.9243336E-1,1.29E1,7.102583E-1,1.6E1,-8.660254E-1,8.704E-1,1.526E1,-2.5881904E-1,3.122E1,-7.818315E-1,2.9E-1,1.334E1,3.558E-1,1.806E1,2.75E-1,5.384E-1,1.0174306E-3,1.3099715E-2,7.050744E-3,4.1425726E-3,1.0916673E-3,1.757348E-2,3.5015233E-3,6.70914E-3,-1.6914228E-3,-1.32964095E-2,-2.2735775E-3,4.7988017E-4,1.4297939E-3,-1.1978267E-3,1.0546149E-3,4.577448E-3,1.2960105E-4,2.198192E-3,-3.0494444E-3,-6.6788046E-4,-1.8588155E-4,-2.7990185E-3,7.003898E-4,-1.6960353E-3,-8.197374E-3,-4.566067E-3,-3.8704753E-3,-7.262019E-3,-3.6260113E-3,-1.533659E-3,-3.5592567E-3,-8.861305E-3],"split_indices":[5,1,4,0,5,0,11,9,8,11,8,4,11,10,8,11,8,11,0,5,10,8,5,8,6,10,8,9,8,10,9,0,0,0,0,0,0,0,0,0,0,0,0,0,0,0,0,0,0,0,0,0,0,0,0,0,0,0,0,0,0,0,0],"split_type":[0,0,0,0,0,0,0,0,0,0,0,0,0,0,0,0,0,0,0,0,0,0,0,0,0,0,0,0,0,0,0,0,0,0,0,0,0,0,0,0,0,0,0,0,0,0,0,0,0,0,0,0,0,0,0,0,0,0,0,0,0,0,0],"sum_hessian":[6.988E3,3.806E3,3.182E3,2.733E3,1.073E3,1.738E3,1.444E3,1.062E3,1.671E3,4.13E2,6.6E2,8.69E2,8.69E2,2.02E2,1.242E3,1.97E2,8.65E2,1.304E3,3.67E2,4E0,4.09E2,5.05E2,1.55E2,2.89E2,5.8E2,6.64E2,2.05E2,4.7E1,1.55E2,5.51E2,6.91E2,1.9E2,7E0,2.32E2,6.33E2,1.298E3,6E0,2.23E2,1.44E2,2E0,2E0,3.81E2,2.8E1,1.87E2,3.18E2,8.9E1,6.6E1,2.47E2,4.2E1,9.3E1,4.87E2,3.5E1,6.29E2,7.4E1,1.31E2,3.7E1,1E1,1.31E2,2.4E1,1.69E2,3.82E2,6.76E2,1.5E1],"tree_param":{"num_deleted":"0","num_feature":"12","num_nodes":"63","size_leaf_vector":"1"}},{"base_weights":[2.3464843E-5,-1.3919671E-2,2.5284873E-2,-2.4453122E-2,-9.1959734E-4,5.3587154E-2,2.0451598E-2,-3.1047566E-2,-1.725728E-2,-6.7370855E-3,1.4924558E-2,4.175998E-2,7.387874E-2,1.2797798E-2,3.475932E-2,-2.224257E-2,-4.203048E-2,-3.8300596E-2,-1.4996391E-2,1.01960935E-2,-9.616559E-3,1.9632913E-3,3.3456758E-2,9.001406E-2,3.599143E-2,6.533628E-2,1.1592053E-1,1.2124706E-2,1.6558811E-1,3.149975E-2,6.8696335E-2,-1.563603E-3,-2.8180324E-3,-5.4375646E-3,-2.9146099E-3,-1.1899587E-3,-5.0671594E-3,-1.603676E-3,1.9511816E-3,-1.7916465E-4,3.9147334E-3,-2.10493E-3,-4.6484286E-4,-4.4643975E-6,1.6060134E-2,2.4483507E-3,5.6886E-3,6.8168836E-3,1.3332835E-2,3.2175914E-3,9.074908E-3,8.761916E-3,3.8877602E-3,1.3037795E-2,6.8380274E-3,1.9872981E-5,1.9304965E-3,1.5032006E-3,4.591843E-2,2.707353E-3,5.833119E-3,4.724051E-3,9.823791E-3],"categories":[],"categories_nodes":[],"categories_segments":[],"categories_sizes":[],"default_left":[0,0,0,0,0,0,0,0,0,0,0,0,0,0,0,0,0,0,0,0,0,0,0,0,0,0,0,0,0,0,0,0,0,0,0,0,0,0,0,0,0,0,0,0,0,0,0,0,0,0,0,0,0,0,0,0,0,0,0,0,0,0,0],"id":22,"left_children":[1,3,5,7,9,11,13,15,17,19,21,23,25,27,29,31,33,35,37,39,41,43,45,47,49,51,53,55,57,59,61,-1,-1,-1,-1,-1,-1,-1,-1,-1,-1,-1,-1,-1,-1,-1,-1,-1,-1,-1,-1,-1,-1,-1,-1,-1,-1,-1,-1,-1,-1,-1,-1],"loss_changes":[2.4620402E0,6.1673564E-1,3.3897066E-1,1.1752617E-1,1.8601386E-1,8.379197E-2,2.3226064E-1,1.2449086E-1,5.6136966E-2,7.2065815E-2,1.3012314E-1,6.106049E-2,3.983271E-2,1.4053117E-1,7.969487E-2,2.788204E-2,9.003365E-2,3.6956817E-2,3.901446E-2,7.468802E-2,7.1582936E-2,1.01938345E-1,4.5489967E-2,1.3620213E-2,4.053721E-2,6.2626034E-2,5.518228E-3,1.1825338E-1,2.5831375E-1,7.882255E-2,3.592488E-2,0E0,0E0,0E0,0E0,0E0,0E0,0E0,0E0,0E0,0E0,0E0,0E0,0E0,0E0,0E0,0E0,0E0,0E0,0E0,0E0,0E0,0E0,0E0,0E0,0E0,0E0,0E0,0E0,0E0,0E0,0E0,0E0],"parents":[2147483647,0,0,1,1,2,2,3,3,4,4,5,5,6,6,7,7,8,8,9,9,10,10,11,11,12,12,13,13,14,14,15,15,16,16,17,17,18,18,19,19,20,20,21,21,22,22,23,23,24,24,25,25,26,26,27,27,28,28,29,29,30,30],"right_children":[2,4,6,8,10,12,14,16,18,20,22,24,26,28,30,32,34,36,38,40,42,44,46,48,50,52,54,56,58,60,62,-1,-1,-1,-1,-1,-1,-1,-1,-1,-1,-1,-1,-1,-1,-1,-1,-1,-1,-1,-1,-1,-1,-1,-1,-1,-1,-1,-1,-1,-1,-1,-1],"split_conditions":[7.272E-1,4.7E-1,9E0,5E0,8.660254E-1,9.842E-1,2.836E1,3E0,4.6673334E-1,-8.660254E-1,7E0,8.36E0,2.81E1,7.102583E-1,3.53E1,1.392E1,4E0,3.666E-1,6.9243336E-1,2.554E1,-7.818315E-1,7.0545E-1,6.32025E-1,1.1044E0,6.8395835E-1,1.42E1,1.0764E0,8.124E-1,1.7E1,1.0092E0,1.6E1,-1.563603E-3,-2.8180324E-3,-5.4375646E-3,-2.9146099E-3,-1.1899587E-3,-5.0671594E-3,-1.603676E-3,1.9511816E-3,-1.7916465E-4,3.9147334E-3,-2.10493E-3,-4.6484286E-4,-4.4643975E-6,1.6060134E-2,2.4483507E-3,5.6886E-3,6.8168836E-3,1.3332835E-2,3.2175914E-3,9.074908E-3,8.761916E-3,3.8877602E-3,1.3037795E-2,6.8380274E-3,1.9872981E-5,1.9304965E-3,1.5032006E-3,4.591843E-2,2.707353E-3,5.833119E-3,4.724051E-3,9.823791E-3],"split_indices":[9,10,0,0,4,9,8,0,11,4,0,8,8,11,8,8,0,9,11,8,6,11,11,10,11,8,9,9,0,9,0,0,0,0,0,0,0,0,0,0,0,0,0,0,0,0,0,0,0,0,0,0,0,0,0,0,0,0,0,0,0,0,0],"split_type":[0,0,0,0,0,0,0,0,0,0,0,0,0,0,0,0,0,0,0,0,0,0,0,0,0,0,0,0,0,0,0,0,0,0,0,0,0,0,0,0,0,0,0,0,0,0,0,0,0,0,0,0,0,0,0,0,0,0,0,0,0,0,0],"sum_hessian":[6.988E3,4.503E3,2.485E3,2.487E3,2.016E3,3.61E2,2.124E3,1.296E3,1.191E3,1.475E3,5.41E2,2.3E2,1.31E2,1.385E3,7.39E2,7.21E2,5.75E2,1.14E2,1.077E3,2.14E2,1.261E3,3.19E2,2.22E2,2.3E1,2.07E2,1.11E2,2E1,1.38E3,5E0,6.76E2,6.3E1,3.43E2,3.78E2,2.92E2,2.83E2,3.7E1,7.7E1,1.046E3,3.1E1,1.52E2,6.2E1,3.81E2,8.8E2,3.16E2,3E0,1.62E2,6E1,1.7E1,6E0,1.95E2,1.2E1,5.9E1,5.2E1,1.4E1,6E0,5.19E2,8.61E2,4E0,1E0,5.82E2,9.4E1,3.8E1,2.5E1],"tree_param":{"num_deleted":"0","num_feature":"12","num_nodes":"63","size_leaf_vector":"1"}},{"base_weights":[4.174603E-5,1.5732456E-2,-1.8725008E-2,6.4154137E-3,3.4035012E-2,-1.1649613E-2,-2.7227003E-2,2.9563943E-2,8.525228E-4,2.9828688E-2,6.1990917E-2,-8.506416E-3,-2.7928172E-2,-2.2694768E-2,-3.857405E-2,7.1387775E-3,4.403698E-2,-1.1710914E-2,8.729076E-3,2.449557E-1,2.9223662E-2,1.6156502E-2,6.9199495E-2,2.6870274E-3,-1.1273589E-2,1.8012794E-4,-3.019915E-2,-3.0097175E-2,-1.1518461E-2,-4.2625822E-2,-2.907123E-3,4.6145692E-3,-7.957738E-4,3.6382792E-3,7.1889344E-3,-1.6683153E-3,1.0921707E-3,-1.2888914E-3,1.2778018E-3,4.0890235E-2,-4.14688E-3,3.374256E-3,1.0347025E-3,6.2901075E-3,-2.9195248E-4,5.6366744E-3,8.894037E-3,-8.970319E-4,6.367241E-4,-2.6152196E-4,-1.5306545E-3,-2.0602548E-3,3.248872E-3,-1.6295019E-3,-3.6859473E-3,-2.2168215E-3,-4.554748E-3,7.877499E-6,-2.1845128E-3,6.128402E-4,-4.499784E-3,-7.7149603E-3,4.5898027E-4],"categories":[],"categories_nodes":[],"categories_segments":[],"categories_sizes":[],"default_left":[0,0,0,0,0,0,0,0,0,0,0,0,0,0,0,0,0,0,0,0,0,0,0,0,0,0,0,0,0,0,0,0,0,0,0,0,0,0,0,0,0,0,0,0,0,0,0,0,0,0,0,0,0,0,0,0,0,0,0,0,0,0,0],"id":23,"left_children":[1,3,5,7,9,11,13,15,17,19,21,23,25,27,29,31,33,35,37,39,41,43,45,47,49,51,53,55,57,59,61,-1,-1,-1,-1,-1,-1,-1,-1,-1,-1,-1,-1,-1,-1,-1,-1,-1,-1,-1,-1,-1,-1,-1,-1,-1,-1,-1,-1,-1,-1,-1,-1],"loss_changes":[2.0583012E0,6.48973E-1,1.9115615E-1,3.249972E-1,1.4913845E-1,8.874136E-2,7.3437214E-2,1.5839562E-1,2.0157783E-1,1.3835758E-1,5.405897E-2,4.522164E-2,1.7942607E-2,8.528054E-2,5.9271455E-2,1.1401883E-1,6.0701072E-2,8.8522E-2,1.0975222E-1,1.5783171E-1,9.484744E-2,2.1584459E-2,3.1466246E-2,1.24985585E-2,4.0814966E-2,1.5441448E-2,2.3476928E-2,7.518828E-2,4.9582675E-2,4.294908E-2,2.4287483E-2,0E0,0E0,0E0,0E0,0E0,0E0,0E0,0E0,0E0,0E0,0E0,0E0,0E0,0E0,0E0,0E0,0E0,0E0,0E0,0E0,0E0,0E0,0E0,0E0,0E0,0E0,0E0,0E0,0E0,0E0,0E0,0E0],"parents":[2147483647,0,0,1,1,2,2,3,3,4,4,5,5,6,6,7,7,8,8,9,9,10,10,11,11,12,12,13,13,14,14,15,15,16,16,17,17,18,18,19,19,20,20,21,21,22,22,23,23,24,24,25,25,26,26,27,27,28,28,29,29,30,30],"right_children":[2,4,6,8,10,12,14,16,18,20,22,24,26,28,30,32,34,36,38,40,42,44,46,48,50,52,54,56,58,60,62,-1,-1,-1,-1,-1,-1,-1,-1,-1,-1,-1,-1,-1,-1,-1,-1,-1,-1,-1,-1,-1,-1,-1,-1,-1,-1,-1,-1,-1,-1,-1,-1],"split_conditions":[2.5881904E-1,6.4675E-1,1.2246469E-16,1E0,1.027E0,2.3E1,5E0,5.004E-1,-7.0710677E-1,5.64E0,-5E-1,-8.660254E-1,2.66E-1,4E0,4.458E-1,4.002E-1,1.0092E0,6.3429165E-1,4.388E-1,2E0,-1.8369701E-16,1.158E1,2.72E1,5.928E-1,1.362E1,2.454E-1,5E0,3E0,1.334E1,5.08E0,4.6393037E-1,4.6145692E-3,-7.957738E-4,3.6382792E-3,7.1889344E-3,-1.6683153E-3,1.0921707E-3,-1.2888914E-3,1.2778018E-3,4.0890235E-2,-4.14688E-3,3.374256E-3,1.0347025E-3,6.2901075E-3,-2.9195248E-4,5.6366744E-3,8.894037E-3,-8.970319E-4,6.367241E-4,-2.6152196E-4,-1.5306545E-3,-2.0602548E-3,3.248872E-3,-1.6295019E-3,-3.6859473E-3,-2.2168215E-3,-4.554748E-3,7.877499E-6,-2.1845128E-3,6.128402E-4,-4.499784E-3,-7.7149603E-3,4.5898027E-4],"split_indices":[5,11,4,1,10,0,1,10,5,8,5,4,10,0,9,10,9,11,9,1,5,8,8,10,8,10,2,0,8,8,11,0,0,0,0,0,0,0,0,0,0,0,0,0,0,0,0,0,0,0,0,0,0,0,0,0,0,0,0,0,0,0,0],"split_type":[0,0,0,0,0,0,0,0,0,0,0,0,0,0,0,0,0,0,0,0,0,0,0,0,0,0,0,0,0,0,0,0,0,0,0,0,0,0,0,0,0,0,0,0,0,0,0,0,0,0,0,0,0,0,0,0,0,0,0,0,0,0,0],"sum_hessian":[6.988E3,3.806E3,3.182E3,2.523E3,1.283E3,1.738E3,1.444E3,4.88E2,2.035E3,1.117E3,1.66E2,1.458E3,2.8E2,1.034E3,4.1E2,1.92E2,2.96E2,7.84E2,1.251E3,2E0,1.115E3,2.3E1,1.43E2,2.89E2,1.169E3,2.1E1,2.59E2,6.21E2,4.13E2,3.68E2,4.2E1,5.3E1,1.39E2,2.34E2,6.2E1,6.43E2,1.41E2,1.97E2,1.054E3,1E0,1E0,8.99E2,2.16E2,6E0,1.7E1,8.9E1,5.4E1,6.9E1,2.2E2,3.72E2,7.97E2,1.3E1,8E0,8.5E1,1.74E2,4.12E2,2.09E2,1.95E2,2.18E2,1.7E1,3.51E2,3E0,3.9E1],"tree_param":{"num_deleted":"0","num_feature":"12","num_nodes":"63","size_leaf_vector":"1"}},{"base_weights":[4.4647633E-5,1.4179101E-2,-1.6860759E-2,2.1586463E-2,-4.6904604E-3,-1.0488205E-2,-2.4518205E-2,9.46221E-3,2.9059045E-2,-1.3364552E-2,5.636139E-3,-3.9906073E-3,-1.6973747E-2,-4.0621966E-2,-2.1868503E-2,-3.1687276E-4,1.9241901E-2,3.616128E-2,8.016323E-3,-1.6695984E-2,1.6428226E-3,-2.3082942E-2,1.1705608E-2,4.8447123E-6,-1.3262515E-2,-2.4048043E-2,-1.0194487E-2,-6.0341414E-2,-3.4294046E-2,-1.4984157E-2,-2.732846E-2,1.5286605E-3,-1.7157464E-3,4.013491E-3,1.4499582E-3,3.1241684E-3,6.2177326E-3,3.8725813E-3,4.049188E-5,-5.998445E-4,-2.205953E-3,7.891979E-4,-2.9694226E-3,-1.52301E-3,-7.5240494E-3,-9.312511E-5,2.6957316E-3,1.0086935E-3,-5.682501E-4,-3.333537E-3,-2.0192555E-4,-2.659211E-3,9.1440184E-4,-5.71276E-4,-1.9458538E-3,-2.945353E-3,-6.578265E-3,-2.3725983E-3,-4.6938723E-3,-7.971753E-4,-2.514009E-3,-2.6140423E-3,-7.588929E-3],"categories":[],"categories_nodes":[],"categories_segments":[],"categories_sizes":[],"default_left":[0,0,0,0,0,0,0,0,0,0,0,0,0,0,0,0,0,0,0,0,0,0,0,0,0,0,0,0,0,0,0,0,0,0,0,0,0,0,0,0,0,0,0,0,0,0,0,0,0,0,0,0,0,0,0,0,0,0,0,0,0,0,0],"id":24,"left_children":[1,3,5,7,9,11,13,15,17,19,21,23,25,27,29,31,33,35,37,39,41,43,45,47,49,51,53,55,57,59,61,-1,-1,-1,-1,-1,-1,-1,-1,-1,-1,-1,-1,-1,-1,-1,-1,-1,-1,-1,-1,-1,-1,-1,-1,-1,-1,-1,-1,-1,-1,-1,-1],"loss_changes":[1.6702515E0,5.3221965E-1,1.5506524E-1,2.4742389E-1,9.6277654E-2,7.32145E-2,6.0770094E-2,9.9850506E-2,2.5243068E-1,2.9225118E-2,8.5856214E-2,3.2229617E-2,4.1478723E-2,2.3261636E-2,4.631269E-2,1.3769193E-1,5.1138505E-2,1.5983486E-1,1.0002604E-1,2.7293757E-2,2.1188168E-2,3.407839E-2,7.8274965E-2,3.4977578E-2,5.9061967E-2,3.6131322E-2,1.840629E-2,6.1297566E-3,1.9732565E-2,3.9111644E-2,3.793913E-2,0E0,0E0,0E0,0E0,0E0,0E0,0E0,0E0,0E0,0E0,0E0,0E0,0E0,0E0,0E0,0E0,0E0,0E0,0E0,0E0,0E0,0E0,0E0,0E0,0E0,0E0,0E0,0E0,0E0,0E0,0E0,0E0],"parents":[2147483647,0,0,1,1,2,2,3,3,4,4,5,5,6,6,7,7,8,8,9,9,10,10,11,11,12,12,13,13,14,14,15,15,16,16,17,17,18,18,19,19,20,20,21,21,22,22,23,23,24,24,25,25,26,26,27,27,28,28,29,29,30,30],"right_children":[2,4,6,8,10,12,14,16,18,20,22,24,26,28,30,32,34,36,38,40,42,44,46,48,50,52,54,56,58,60,62,-1,-1,-1,-1,-1,-1,-1,-1,-1,-1,-1,-1,-1,-1,-1,-1,-1,-1,-1,-1,-1,-1,-1,-1,-1,-1,-1,-1,-1,-1,-1,-1],"split_conditions":[2.5881904E-1,5E0,1.2246469E-16,-7.0710677E-1,-5E-1,2.1E1,4.8324168E-1,2.282E1,-1.8369701E-16,3.136E1,7E0,5E0,6.3483334E-1,2.168E-1,1.226E1,1.646E1,1.1E1,1.7E1,1.26E1,1.1E1,5.824E-1,4.022E-1,4.9790832E-1,1.586E1,5.056E-1,2.836E1,2.3E1,1.73E-1,3.244E-1,4E0,5.384E-1,1.5286605E-3,-1.7157464E-3,4.013491E-3,1.4499582E-3,3.1241684E-3,6.2177326E-3,3.8725813E-3,4.049188E-5,-5.998445E-4,-2.205953E-3,7.891979E-4,-2.9694226E-3,-1.52301E-3,-7.5240494E-3,-9.312511E-5,2.6957316E-3,1.0086935E-3,-5.682501E-4,-3.333537E-3,-2.0192555E-4,-2.659211E-3,9.1440184E-4,-5.71276E-4,-1.9458538E-3,-2.945353E-3,-6.578265E-3,-2.3725983E-3,-4.6938723E-3,-7.971753E-4,-2.514009E-3,-2.6140423E-3,-7.588929E-3],"split_indices":[5,1,4,5,5,0,11,8,5,8,0,1,11,10,8,8,0,0,8,0,9,9,11,8,9,8,0,9,10,1,9,0,0,0,0,0,0,0,0,0,0,0,0,0,0,0,0,0,0,0,0,0,0,0,0,0,0,0,0,0,0,0,0],"split_type":[0,0,0,0,0,0,0,0,0,0,0,0,0,0,0,0,0,0,0,0,0,0,0,0,0,0,0,0,0,0,0,0,0,0,0,0,0,0,0,0,0,0,0,0,0,0,0,0,0,0,0,0,0,0,0,0,0,0,0,0,0,0,0],"sum_hessian":[6.988E3,3.806E3,3.182E3,2.733E3,1.073E3,1.738E3,1.444E3,1.043E3,1.69E3,5.83E2,4.9E2,8.69E2,8.69E2,2.02E2,1.242E3,5.22E2,5.21E2,1.263E3,4.27E2,4.77E2,1.06E2,8.5E1,4.05E2,6.08E2,2.61E2,4.24E2,4.45E2,4.7E1,1.55E2,5.51E2,6.91E2,2.71E2,2.51E2,9.5E1,4.26E2,1.064E3,1.99E2,8.4E1,3.43E2,1.6E2,3.17E2,8.9E1,1.7E1,7.5E1,1E1,2.22E2,1.83E2,2.19E2,3.89E2,9.3E1,1.68E2,3.94E2,3E1,3.01E2,1.44E2,8E0,3.9E1,8.6E1,6.9E1,3.27E2,2.24E2,6.76E2,1.5E1],"tree_param":{"num_deleted":"0","num_feature":"12","num_nodes":"63","size_leaf_vector":"1"}},{"base_weights":[3.5840614E-5,1.2763057E-2,-1.51864495E-2,4.831528E-3,2.8344378E-2,-1.0377801E-2,-2.356362E-2,2.4517912E-2,1.0094177E-4,2.3012619E-1,2.785008E-2,-3.6498528E-2,-9.242036E-3,-2.7740989E-2,-1.087771E-2,5.226886E-3,3.6971282E-2,-3.2393984E-3,2.177594E-2,3.8652092E-2,-4.133165E-3,2.4133068E-2,5.252275E-2,3.1261235E-2,-3.853244E-2,-1.1129594E-2,5.4988246E-3,-3.1876855E-2,-1.1550862E-2,-3.187642E-3,-2.1681326E-2,4.050857E-3,-8.4190984E-4,6.626612E-3,3.0483126E-3,-6.3661335E-4,1.3652175E-3,1.2943202E-4,3.3489154E-3,5.7703326E-3,2.2137344E-3,1.1829478E-3,5.894022E-3,3.7051456E-3,9.8404E-4,-8.999904E-3,-3.4021635E-3,-9.1134507E-4,-2.1978398E-3,-8.1143033E-4,9.322781E-4,-2.6508712E-3,-4.776723E-3,5.0073075E-3,-1.4726679E-3,1.0213185E-3,-1.4660226E-3,4.4134906E-3,-2.5532485E-3],"categories":[],"categories_nodes":[],"categories_segments":[],"categories_sizes":[],"default_left":[0,0,0,0,0,0,0,0,0,0,0,0,0,0,0,0,0,0,0,0,0,0,0,0,0,0,0,0,0,0,0,0,0,0,0,0,0,0,0,0,0,0,0,0,0,0,0,0,0,0,0,0,0,0,0,0,0,0,0],"id":25,"left_children":[1,3,5,7,9,11,13,15,17,19,21,23,25,27,29,31,33,35,37,-1,-1,39,41,43,45,47,49,51,53,55,57,-1,-1,-1,-1,-1,-1,-1,-1,-1,-1,-1,-1,-1,-1,-1,-1,-1,-1,-1,-1,-1,-1,-1,-1,-1,-1,-1,-1],"loss_changes":[1.3542244E0,4.703462E-1,1.2797582E-1,2.3505297E-1,1.2165761E-1,5.9708685E-2,6.1170936E-2,1.17283255E-1,1.4748074E-1,1.4333925E-1,1.1630291E-1,1.278124E-2,5.4068044E-2,5.802113E-2,2.3941163E-2,9.3261525E-2,5.4430604E-2,9.3306206E-2,6.521098E-2,0E0,0E0,7.3491216E-2,4.291445E-2,7.492956E-6,1.5974857E-2,3.7442714E-2,1.1580026E-2,5.793315E-2,3.5768833E-2,2.6285885E-2,3.1543147E-2,0E0,0E0,0E0,0E0,0E0,0E0,0E0,0E0,0E0,0E0,0E0,0E0,0E0,0E0,0E0,0E0,0E0,0E0,0E0,0E0,0E0,0E0,0E0,0E0,0E0,0E0,0E0,0E0],"parents":[2147483647,0,0,1,1,2,2,3,3,4,4,5,5,6,6,7,7,8,8,9,9,10,10,11,11,12,12,13,13,14,14,15,15,16,16,17,17,18,18,21,21,22,22,23,23,24,24,25,25,26,26,27,27,28,28,29,29,30,30],"right_children":[2,4,6,8,10,12,14,16,18,20,22,24,26,28,30,32,34,36,38,-1,-1,40,42,44,46,48,50,52,54,56,58,-1,-1,-1,-1,-1,-1,-1,-1,-1,-1,-1,-1,-1,-1,-1,-1,-1,-1,-1,-1,-1,-1,-1,-1,-1,-1,-1,-1],"split_conditions":[2.5881904E-1,6.4675E-1,5E-1,1E0,5.64E0,4.6045834E-1,5E0,5.004E-1,9.612E-1,2E0,1.027E0,9.84E0,7.464E-1,6.634479E-1,4E0,4.002E-1,1.226E1,1.7E1,6.15125E-1,3.8652092E-2,-4.133165E-3,1E0,-5E-1,1E0,1.226E1,2.3E1,5.65E-1,1.84E1,1.73E-1,1.328E1,5.08E0,4.050857E-3,-8.4190984E-4,6.626612E-3,3.0483126E-3,-6.3661335E-4,1.3652175E-3,1.2943202E-4,3.3489154E-3,5.7703326E-3,2.2137344E-3,1.1829478E-3,5.894022E-3,3.7051456E-3,9.8404E-4,-8.999904E-3,-3.4021635E-3,-9.1134507E-4,-2.1978398E-3,-8.1143033E-4,9.322781E-4,-2.6508712E-3,-4.776723E-3,5.0073075E-3,-1.4726679E-3,1.0213185E-3,-1.4660226E-3,4.4134906E-3,-2.5532485E-3],"split_indices":[5,11,4,1,8,11,0,10,10,1,10,8,9,11,1,10,8,0,11,0,0,1,5,0,8,0,10,8,9,8,8,0,0,0,0,0,0,0,0,0,0,0,0,0,0,0,0,0,0,0,0,0,0,0,0,0,0,0,0],"split_type":[0,0,0,0,0,0,0,0,0,0,0,0,0,0,0,0,0,0,0,0,0,0,0,0,0,0,0,0,0,0,0,0,0,0,0,0,0,0,0,0,0,0,0,0,0,0,0,0,0,0,0,0,0,0,0,0,0,0,0],"sum_hessian":[6.988E3,3.806E3,3.182E3,2.523E3,1.283E3,2.023E3,1.159E3,4.88E2,2.035E3,2E0,1.281E3,8.3E1,1.94E3,8.71E2,2.88E2,1.92E2,2.96E2,1.764E3,2.71E2,1E0,1E0,1.115E3,1.66E2,2E0,8.1E1,1.72E3,2.2E2,6.93E2,1.78E2,1.69E2,1.19E2,5.3E1,1.39E2,5.2E1,2.44E2,1.489E3,2.75E2,9.9E1,1.72E2,6.1E1,1.054E3,2.3E1,1.43E2,1E0,1E0,5E0,7.6E1,1.452E3,2.68E2,4.8E1,1.72E2,5.2E2,1.73E2,8E0,1.7E2,7.8E1,9.1E1,6E0,1.13E2],"tree_param":{"num_deleted":"0","num_feature":"12","num_nodes":"59","size_leaf_vector":"1"}},{"base_weights":[3.991707E-5,-8.993427E-3,1.7581925E-2,1.5731284E-3,-1.4993525E-2,2.9833615E-2,1.088703E-2,-1.6690252E-3,2.7962394E-2,-1.1724233E-2,-2.2833832E-2,2.3058644E-2,4.5978248E-2,1.4308834E-3,2.2629313E-2,2.139493E-2,-4.057837E-3,3.671949E-2,2.4080925E-2,-1.3930005E-2,-2.6284556E-3,-3.9301507E-2,-1.4373338E-2,4.0733367E-2,1.654522E-2,1.0522538E-1,4.3554805E-2,3.946943E-4,2.2126335E-1,9.537455E-3,3.0114237E-2,3.1500354E-3,-9.821352E-4,-9.758941E-4,3.072923E-4,1.9548964E-3,1.0007576E-2,-7.808617E-3,-1.3690877E-3,1.2509674E-3,-7.405579E-4,-2.8286916E-3,-4.7215843E-3,-6.740509E-4,-3.403345E-3,3.4641859E-3,9.69024E-3,-4.2279626E-5,2.875313E-3,2.2563518E-3,1.1273767E-2,6.0634227E-3,3.5678712E-3,-3.6479637E-3,2.1177324E-4,8.136292E-4,4.3032225E-2,1.9392539E-3,-3.906701E-4,4.5211078E-3,1.0512471E-3],"categories":[],"categories_nodes":[],"categories_segments":[],"categories_sizes":[],"default_left":[0,0,0,0,0,0,0,0,0,0,0,0,0,0,0,0,0,0,0,0,0,0,0,0,0,0,0,0,0,0,0,0,0,0,0,0,0,0,0,0,0,0,0,0,0,0,0,0,0,0,0,0,0,0,0,0,0,0,0,0,0],"id":26,"left_children":[1,3,5,7,9,11,13,15,17,19,21,23,25,27,29,31,33,-1,35,37,39,41,43,45,47,49,51,53,55,57,59,-1,-1,-1,-1,-1,-1,-1,-1,-1,-1,-1,-1,-1,-1,-1,-1,-1,-1,-1,-1,-1,-1,-1,-1,-1,-1,-1,-1,-1,-1],"loss_changes":[1.1076561E0,2.9255286E-1,1.9456363E-1,1.4309974E-1,7.516801E-2,9.070909E-2,1.7074214E-1,8.217904E-2,2.3211744E-1,4.1674823E-2,1.1995095E-1,6.759399E-2,3.0881703E-2,1.9421583E-1,6.693497E-2,4.447291E-2,5.4952465E-2,0E0,6.0725443E-2,2.4597436E-2,2.9525543E-2,2.4206161E-2,8.575627E-2,5.1045626E-2,9.011981E-2,3.0450597E-3,2.998671E-2,5.4082744E-2,1.7472322E-1,3.3331573E-2,1.2854788E-1,0E0,0E0,0E0,0E0,0E0,0E0,0E0,0E0,0E0,0E0,0E0,0E0,0E0,0E0,0E0,0E0,0E0,0E0,0E0,0E0,0E0,0E0,0E0,0E0,0E0,0E0,0E0,0E0,0E0,0E0],"parents":[2147483647,0,0,1,1,2,2,3,3,4,4,5,5,6,6,7,7,8,8,9,9,10,10,11,11,12,12,13,13,14,14,15,15,16,16,18,18,19,19,20,20,21,21,22,22,23,23,24,24,25,25,26,26,27,27,28,28,29,29,30,30],"right_children":[2,4,6,8,10,12,14,16,18,20,22,24,26,28,30,32,34,-1,36,38,40,42,44,46,48,50,52,54,56,58,60,-1,-1,-1,-1,-1,-1,-1,-1,-1,-1,-1,-1,-1,-1,-1,-1,-1,-1,-1,-1,-1,-1,-1,-1,-1,-1,-1,-1,-1,-1],"split_conditions":[7.378E-1,2.5881904E-1,1.1E1,6.5615E-1,7.0710677E-1,6.569833E-1,2.662E1,1E0,5.64E0,6.66275E-1,4E0,1E0,7.61E-1,